<?xml version="1.0"?>
<opencv_storage>
<cascade>
  <stageType>BOOST</stageType>
  <featureType>HAAR</featureType>
  <height>40</height>
  <width>80</width>
  <stageParams>
    <boostType>GAB</boostType>
    <minHitRate>9.9900001287460327e-01</minHitRate>
    <maxFalseAlarm>5.0000000000000000e-01</maxFalseAlarm>
    <weightTrimRate>9.4999999999999996e-01</weightTrimRate>
    <maxDepth>1</maxDepth>
    <maxWeakCount>100</maxWeakCount></stageParams>
  <featureParams>
    <maxCatCount>0</maxCatCount>
    <featSize>1</featSize>
    <mode>ALL</mode></featureParams>
  <stageNum>19</stageNum>
  <stages>
    <!-- stage 0 -->
    <_>
      <maxWeakCount>9</maxWeakCount>
      <stageThreshold>-1.1581752300262451e+00</stageThreshold>
      <weakClassifiers>
        <_>
          <internalNodes>
            0 -1 68 3.4287691116333008e-01</internalNodes>
          <leafValues>
            4.5965951681137085e-01 -8.8755017518997192e-01</leafValues></_>
        <_>
          <internalNodes>
            0 -1 514 3.9360426366329193e-02</internalNodes>
          <leafValues>
            -2.9225176572799683e-01 8.1690329313278198e-01</leafValues></_>
        <_>
          <internalNodes>
            0 -1 256 -2.4442193098366261e-03</internalNodes>
          <leafValues>
            6.7218434810638428e-01 -2.5011205673217773e-01</leafValues></_>
        <_>
          <internalNodes>
            0 -1 187 4.3947878293693066e-03</internalNodes>
          <leafValues>
            -2.6507908105850220e-01 6.1559528112411499e-01</leafValues></_>
        <_>
          <internalNodes>
            0 -1 94 7.4413903057575226e-03</internalNodes>
          <leafValues>
            -1.5714861452579498e-01 6.8872785568237305e-01</leafValues></_>
        <_>
          <internalNodes>
            0 -1 65 -4.3649161234498024e-03</internalNodes>
          <leafValues>
            5.2410513162612915e-01 -2.6749315857887268e-01</leafValues></_>
        <_>
          <internalNodes>
            0 -1 264 8.5298921912908554e-03</internalNodes>
          <leafValues>
            -2.7822440862655640e-01 5.7242119312286377e-01</leafValues></_>
        <_>
          <internalNodes>
            0 -1 255 -5.7172304950654507e-03</internalNodes>
          <leafValues>
            6.5121442079544067e-01 -2.6298364996910095e-01</leafValues></_>
        <_>
          <internalNodes>
            0 -1 549 -6.6520813852548599e-03</internalNodes>
          <leafValues>
            5.8707457780838013e-01 -2.1122694015502930e-01</leafValues></_></weakClassifiers></_>
    <!-- stage 1 -->
    <_>
      <maxWeakCount>18</maxWeakCount>
      <stageThreshold>-1.1059409379959106e+00</stageThreshold>
      <weakClassifiers>
        <_>
          <internalNodes>
            0 -1 390 3.7363811861723661e-04</internalNodes>
          <leafValues>
            -2.9252437874674797e-02 6.3072377443313599e-01</leafValues></_>
        <_>
          <internalNodes>
            0 -1 227 9.0758837759494781e-02</internalNodes>
          <leafValues>
            -1.4071187376976013e-01 7.8865581750869751e-01</leafValues></_>
        <_>
          <internalNodes>
            0 -1 248 1.6405452042818069e-02</internalNodes>
          <leafValues>
            -1.5496371686458588e-01 7.0702672004699707e-01</leafValues></_>
        <_>
          <internalNodes>
            0 -1 104 -4.2620718479156494e-02</internalNodes>
          <leafValues>
            5.6747293472290039e-01 -1.9574528932571411e-01</leafValues></_>
        <_>
          <internalNodes>
            0 -1 518 -1.3570213690400124e-02</internalNodes>
          <leafValues>
            6.8627959489822388e-01 -1.7116264998912811e-01</leafValues></_>
        <_>
          <internalNodes>
            0 -1 435 -5.3852170705795288e-02</internalNodes>
          <leafValues>
            5.8259081840515137e-01 -1.5579667687416077e-01</leafValues></_>
        <_>
          <internalNodes>
            0 -1 101 9.6844201907515526e-03</internalNodes>
          <leafValues>
            -1.6528387367725372e-01 6.7374140024185181e-01</leafValues></_>
        <_>
          <internalNodes>
            0 -1 497 3.0672801658511162e-03</internalNodes>
          <leafValues>
            -1.6201272606849670e-01 6.2185502052307129e-01</leafValues></_>
        <_>
          <internalNodes>
            0 -1 69 -1.7899453639984131e-02</internalNodes>
          <leafValues>
            6.0628306865692139e-01 -1.9667044281959534e-01</leafValues></_>
        <_>
          <internalNodes>
            0 -1 273 -1.5814951620995998e-03</internalNodes>
          <leafValues>
            5.4249155521392822e-01 -1.9916246831417084e-01</leafValues></_>
        <_>
          <internalNodes>
            0 -1 357 1.1203343048691750e-02</internalNodes>
          <leafValues>
            -1.4067085087299347e-01 6.9027411937713623e-01</leafValues></_>
        <_>
          <internalNodes>
            0 -1 144 -2.0158711820840836e-02</internalNodes>
          <leafValues>
            5.8633941411972046e-01 -1.2995460629463196e-01</leafValues></_>
        <_>
          <internalNodes>
            0 -1 349 8.5529114585369825e-05</internalNodes>
          <leafValues>
            -2.2477653622627258e-01 3.8302624225616455e-01</leafValues></_>
        <_>
          <internalNodes>
            0 -1 427 -1.2839280068874359e-02</internalNodes>
          <leafValues>
            6.9492405652999878e-01 -9.9254898726940155e-02</leafValues></_>
        <_>
          <internalNodes>
            0 -1 408 -1.8722489476203918e-02</internalNodes>
          <leafValues>
            6.9264161586761475e-01 -1.3487596809864044e-01</leafValues></_>
        <_>
          <internalNodes>
            0 -1 11 -2.1386586129665375e-02</internalNodes>
          <leafValues>
            6.3699746131896973e-01 -1.2237208336591721e-01</leafValues></_>
        <_>
          <internalNodes>
            0 -1 63 1.4453114941716194e-02</internalNodes>
          <leafValues>
            -1.5589566528797150e-01 5.3451597690582275e-01</leafValues></_>
        <_>
          <internalNodes>
            0 -1 581 3.1268359161913395e-03</internalNodes>
          <leafValues>
            -1.5250211954116821e-01 5.1763117313385010e-01</leafValues></_></weakClassifiers></_>
    <!-- stage 2 -->
    <_>
      <maxWeakCount>23</maxWeakCount>
      <stageThreshold>-9.0124005079269409e-01</stageThreshold>
      <weakClassifiers>
        <_>
          <internalNodes>
            0 -1 552 1.4443915337324142e-02</internalNodes>
          <leafValues>
            7.0725157856941223e-02 6.6459625959396362e-01</leafValues></_>
        <_>
          <internalNodes>
            0 -1 322 -9.7317602485418320e-03</internalNodes>
          <leafValues>
            4.6074625849723816e-01 -1.6868478059768677e-01</leafValues></_>
        <_>
          <internalNodes>
            0 -1 382 1.1901595629751682e-02</internalNodes>
          <leafValues>
            -2.0632037520408630e-01 4.9886912107467651e-01</leafValues></_>
        <_>
          <internalNodes>
            0 -1 332 -1.9136902119498700e-04</internalNodes>
          <leafValues>
            7.2307616472244263e-01 -8.2245364785194397e-02</leafValues></_>
        <_>
          <internalNodes>
            0 -1 164 1.8202619627118111e-02</internalNodes>
          <leafValues>
            -1.3684260845184326e-01 5.6217467784881592e-01</leafValues></_>
        <_>
          <internalNodes>
            0 -1 3 -3.0792869627475739e-02</internalNodes>
          <leafValues>
            5.6865572929382324e-01 -1.5857368707656860e-01</leafValues></_>
        <_>
          <internalNodes>
            0 -1 534 -1.5571255236864090e-02</internalNodes>
          <leafValues>
            5.4699832201004028e-01 -1.4979678392410278e-01</leafValues></_>
        <_>
          <internalNodes>
            0 -1 25 -2.2753900848329067e-03</internalNodes>
          <leafValues>
            -3.8768970966339111e-01 1.9887815415859222e-01</leafValues></_>
        <_>
          <internalNodes>
            0 -1 372 5.7493057101964951e-04</internalNodes>
          <leafValues>
            -1.7866219580173492e-01 4.5933789014816284e-01</leafValues></_>
        <_>
          <internalNodes>
            0 -1 368 -7.8032759483903646e-04</internalNodes>
          <leafValues>
            5.2235734462738037e-01 -1.2824216485023499e-01</leafValues></_>
        <_>
          <internalNodes>
            0 -1 522 8.5689825937151909e-04</internalNodes>
          <leafValues>
            -1.4734803140163422e-01 4.6971270442008972e-01</leafValues></_>
        <_>
          <internalNodes>
            0 -1 380 -1.8735019490122795e-02</internalNodes>
          <leafValues>
            5.8539748191833496e-01 -1.1175730824470520e-01</leafValues></_>
        <_>
          <internalNodes>
            0 -1 436 1.0285610187565908e-04</internalNodes>
          <leafValues>
            -1.4040483534336090e-01 4.6114465594291687e-01</leafValues></_>
        <_>
          <internalNodes>
            0 -1 474 -1.3997590031067375e-05</internalNodes>
          <leafValues>
            -3.6356389522552490e-01 1.8933218717575073e-01</leafValues></_>
        <_>
          <internalNodes>
            0 -1 439 -1.5266468108166009e-04</internalNodes>
          <leafValues>
            5.9140121936798096e-01 -9.2121042311191559e-02</leafValues></_>
        <_>
          <internalNodes>
            0 -1 7 -2.1007811650633812e-02</internalNodes>
          <leafValues>
            4.4457986950874329e-01 -1.4382652938365936e-01</leafValues></_>
        <_>
          <internalNodes>
            0 -1 73 9.0807033702731133e-03</internalNodes>
          <leafValues>
            -2.4718439579010010e-01 3.8473042845726013e-01</leafValues></_>
        <_>
          <internalNodes>
            0 -1 550 -4.1843470185995102e-02</internalNodes>
          <leafValues>
            5.9623736143112183e-01 -1.1135248094797134e-01</leafValues></_>
        <_>
          <internalNodes>
            0 -1 394 -1.6672884812578559e-03</internalNodes>
          <leafValues>
            4.3921115994453430e-01 -1.5547288954257965e-01</leafValues></_>
        <_>
          <internalNodes>
            0 -1 112 -1.2301730457693338e-03</internalNodes>
          <leafValues>
            5.1643854379653931e-01 -1.3468909263610840e-01</leafValues></_>
        <_>
          <internalNodes>
            0 -1 577 -5.4530845955014229e-03</internalNodes>
          <leafValues>
            5.7430166006088257e-01 -1.0323925316333771e-01</leafValues></_>
        <_>
          <internalNodes>
            0 -1 58 3.6631032708100975e-04</internalNodes>
          <leafValues>
            1.3083782792091370e-01 -5.8511906862258911e-01</leafValues></_>
        <_>
          <internalNodes>
            0 -1 145 -2.5320617714896798e-04</internalNodes>
          <leafValues>
            7.5940608978271484e-01 -1.1831507086753845e-01</leafValues></_></weakClassifiers></_>
    <!-- stage 3 -->
    <_>
      <maxWeakCount>25</maxWeakCount>
      <stageThreshold>-8.3436685800552368e-01</stageThreshold>
      <weakClassifiers>
        <_>
          <internalNodes>
            0 -1 86 -2.2935444116592407e-01</internalNodes>
          <leafValues>
            -7.1681416034698486e-01 3.2347008585929871e-01</leafValues></_>
        <_>
          <internalNodes>
            0 -1 166 4.3773416429758072e-02</internalNodes>
          <leafValues>
            2.3044779896736145e-01 -4.5301774144172668e-01</leafValues></_>
        <_>
          <internalNodes>
            0 -1 158 3.9703615009784698e-02</internalNodes>
          <leafValues>
            -1.6300888359546661e-01 6.5627020597457886e-01</leafValues></_>
        <_>
          <internalNodes>
            0 -1 136 -8.8834967464208603e-03</internalNodes>
          <leafValues>
            4.9348214268684387e-01 -1.7628397047519684e-01</leafValues></_>
        <_>
          <internalNodes>
            0 -1 392 -1.3115853653289378e-04</internalNodes>
          <leafValues>
            5.2186858654022217e-01 -1.3765951991081238e-01</leafValues></_>
        <_>
          <internalNodes>
            0 -1 512 3.2410241663455963e-02</internalNodes>
          <leafValues>
            -1.4512601494789124e-01 3.8775715231895447e-01</leafValues></_>
        <_>
          <internalNodes>
            0 -1 331 1.3974800822325051e-04</internalNodes>
          <leafValues>
            -1.8515065312385559e-01 5.0362503528594971e-01</leafValues></_>
        <_>
          <internalNodes>
            0 -1 580 8.2517988630570471e-05</internalNodes>
          <leafValues>
            2.4549408257007599e-01 -3.0419260263442993e-01</leafValues></_>
        <_>
          <internalNodes>
            0 -1 312 2.6228686794638634e-02</internalNodes>
          <leafValues>
            -1.0824596136808395e-01 7.0440989732742310e-01</leafValues></_>
        <_>
          <internalNodes>
            0 -1 280 2.0380502566695213e-02</internalNodes>
          <leafValues>
            -2.0461630821228027e-01 4.4842788577079773e-01</leafValues></_>
        <_>
          <internalNodes>
            0 -1 334 2.7918065898120403e-03</internalNodes>
          <leafValues>
            -1.5513084828853607e-01 4.4784951210021973e-01</leafValues></_>
        <_>
          <internalNodes>
            0 -1 330 2.9308610828593373e-04</internalNodes>
          <leafValues>
            -8.1946492195129395e-02 7.0323157310485840e-01</leafValues></_>
        <_>
          <internalNodes>
            0 -1 47 -9.9404322099871933e-05</internalNodes>
          <leafValues>
            -3.7963134050369263e-01 1.9818462431430817e-01</leafValues></_>
        <_>
          <internalNodes>
            0 -1 440 -2.3043069522827864e-03</internalNodes>
          <leafValues>
            4.4732525944709778e-01 -1.7342060804367065e-01</leafValues></_>
        <_>
          <internalNodes>
            0 -1 37 -1.9495379179716110e-02</internalNodes>
          <leafValues>
            4.8159706592559814e-01 -1.2634509801864624e-01</leafValues></_>
        <_>
          <internalNodes>
            0 -1 33 -2.2538017947226763e-04</internalNodes>
          <leafValues>
            -4.5949560403823853e-01 1.5227055549621582e-01</leafValues></_>
        <_>
          <internalNodes>
            0 -1 367 -1.2825909652747214e-04</internalNodes>
          <leafValues>
            4.1048949956893921e-01 -1.7451432347297668e-01</leafValues></_>
        <_>
          <internalNodes>
            0 -1 137 5.1883496344089508e-03</internalNodes>
          <leafValues>
            -1.2664423882961273e-01 5.3484314680099487e-01</leafValues></_>
        <_>
          <internalNodes>
            0 -1 293 -2.9925856739282608e-02</internalNodes>
          <leafValues>
            6.3958370685577393e-01 -8.8618002831935883e-02</leafValues></_>
        <_>
          <internalNodes>
            0 -1 46 -5.0375470891594887e-04</internalNodes>
          <leafValues>
            -5.0104910135269165e-01 1.4290691912174225e-01</leafValues></_>
        <_>
          <internalNodes>
            0 -1 429 -2.8525275411084294e-04</internalNodes>
          <leafValues>
            8.1846147775650024e-01 -9.8626524209976196e-02</leafValues></_>
        <_>
          <internalNodes>
            0 -1 491 2.6739458553493023e-04</internalNodes>
          <leafValues>
            -7.0613808929920197e-02 7.2672033309936523e-01</leafValues></_>
        <_>
          <internalNodes>
            0 -1 221 -1.5605600550770760e-02</internalNodes>
          <leafValues>
            4.9874979257583618e-01 -1.3515767455101013e-01</leafValues></_>
        <_>
          <internalNodes>
            0 -1 64 -3.5223819315433502e-02</internalNodes>
          <leafValues>
            3.4136658906936646e-01 -2.0863080024719238e-01</leafValues></_>
        <_>
          <internalNodes>
            0 -1 124 4.2262769420631230e-04</internalNodes>
          <leafValues>
            -1.7122556269168854e-01 4.0247264504432678e-01</leafValues></_></weakClassifiers></_>
    <!-- stage 4 -->
    <_>
      <maxWeakCount>26</maxWeakCount>
      <stageThreshold>-1.0056626796722412e+00</stageThreshold>
      <weakClassifiers>
        <_>
          <internalNodes>
            0 -1 519 5.1576912403106689e-02</internalNodes>
          <leafValues>
            4.2990654706954956e-02 6.6792452335357666e-01</leafValues></_>
        <_>
          <internalNodes>
            0 -1 1 3.9368689060211182e-01</internalNodes>
          <leafValues>
            -8.3985805511474609e-02 7.7793884277343750e-01</leafValues></_>
        <_>
          <internalNodes>
            0 -1 79 -6.8934597074985504e-02</internalNodes>
          <leafValues>
            6.6776144504547119e-01 -1.1517079174518585e-01</leafValues></_>
        <_>
          <internalNodes>
            0 -1 553 1.6034081578254700e-02</internalNodes>
          <leafValues>
            -1.7838941514492035e-01 5.4869931936264038e-01</leafValues></_>
        <_>
          <internalNodes>
            0 -1 533 -2.9904399067163467e-02</internalNodes>
          <leafValues>
            5.7928967475891113e-01 -1.3393513858318329e-01</leafValues></_>
        <_>
          <internalNodes>
            0 -1 67 -2.2536935284733772e-04</internalNodes>
          <leafValues>
            -4.8351600766181946e-01 2.0112775266170502e-01</leafValues></_>
        <_>
          <internalNodes>
            0 -1 13 3.9637327427044511e-04</internalNodes>
          <leafValues>
            1.7644543945789337e-01 -4.3970856070518494e-01</leafValues></_>
        <_>
          <internalNodes>
            0 -1 176 2.4703457951545715e-01</internalNodes>
          <leafValues>
            -8.3056598901748657e-02 9.1750168800354004e-01</leafValues></_>
        <_>
          <internalNodes>
            0 -1 319 -1.2816067785024643e-02</internalNodes>
          <leafValues>
            6.4331078529357910e-01 -1.0288011282682419e-01</leafValues></_>
        <_>
          <internalNodes>
            0 -1 244 -1.9157301634550095e-02</internalNodes>
          <leafValues>
            5.7159036397933960e-01 -1.0819131880998611e-01</leafValues></_>
        <_>
          <internalNodes>
            0 -1 57 9.5726503059267998e-04</internalNodes>
          <leafValues>
            1.2126666307449341e-01 -5.7841175794601440e-01</leafValues></_>
        <_>
          <internalNodes>
            0 -1 85 1.1696650472003967e-04</internalNodes>
          <leafValues>
            1.8038904666900635e-01 -3.6886766552925110e-01</leafValues></_>
        <_>
          <internalNodes>
            0 -1 594 1.0304914321750402e-03</internalNodes>
          <leafValues>
            -1.3176925480365753e-01 6.0104113817214966e-01</leafValues></_>
        <_>
          <internalNodes>
            0 -1 276 -1.5873350203037262e-02</internalNodes>
          <leafValues>
            4.8886677622795105e-01 -1.1380159854888916e-01</leafValues></_>
        <_>
          <internalNodes>
            0 -1 568 -5.8172026911051944e-05</internalNodes>
          <leafValues>
            -3.5457220673561096e-01 1.8602095544338226e-01</leafValues></_>
        <_>
          <internalNodes>
            0 -1 311 -1.4080998953431845e-03</internalNodes>
          <leafValues>
            -3.1421712040901184e-01 2.2436495125293732e-01</leafValues></_>
        <_>
          <internalNodes>
            0 -1 186 -7.5400284913484938e-06</internalNodes>
          <leafValues>
            -2.9575139284133911e-01 2.2868034243583679e-01</leafValues></_>
        <_>
          <internalNodes>
            0 -1 432 9.7646526992321014e-03</internalNodes>
          <leafValues>
            -1.1012483388185501e-01 5.7139045000076294e-01</leafValues></_>
        <_>
          <internalNodes>
            0 -1 365 -2.0968233002349734e-05</internalNodes>
          <leafValues>
            -3.1740942597389221e-01 2.1343322098255157e-01</leafValues></_>
        <_>
          <internalNodes>
            0 -1 611 1.1785965762101114e-04</internalNodes>
          <leafValues>
            1.5793092548847198e-01 -4.0047106146812439e-01</leafValues></_>
        <_>
          <internalNodes>
            0 -1 601 3.7747377064079046e-05</internalNodes>
          <leafValues>
            1.8849788606166840e-01 -3.4066268801689148e-01</leafValues></_>
        <_>
          <internalNodes>
            0 -1 412 3.5125862807035446e-02</internalNodes>
          <leafValues>
            7.2932533919811249e-02 -8.5396558046340942e-01</leafValues></_>
        <_>
          <internalNodes>
            0 -1 30 -1.4235592971090227e-04</internalNodes>
          <leafValues>
            -3.1533679366111755e-01 1.9548012316226959e-01</leafValues></_>
        <_>
          <internalNodes>
            0 -1 139 -1.7811598809203133e-05</internalNodes>
          <leafValues>
            -2.9112318158149719e-01 2.1816751360893250e-01</leafValues></_>
        <_>
          <internalNodes>
            0 -1 232 -2.1631136536598206e-02</internalNodes>
          <leafValues>
            -6.0151201486587524e-01 1.0075943917036057e-01</leafValues></_>
        <_>
          <internalNodes>
            0 -1 309 2.2278297692537308e-03</internalNodes>
          <leafValues>
            -1.4283484220504761e-01 5.0121629238128662e-01</leafValues></_></weakClassifiers></_>
    <!-- stage 5 -->
    <_>
      <maxWeakCount>28</maxWeakCount>
      <stageThreshold>-9.1569131612777710e-01</stageThreshold>
      <weakClassifiers>
        <_>
          <internalNodes>
            0 -1 530 3.9879333227872849e-02</internalNodes>
          <leafValues>
            8.9500859379768372e-02 6.7579907178878784e-01</leafValues></_>
        <_>
          <internalNodes>
            0 -1 288 2.3454165784642100e-04</internalNodes>
          <leafValues>
            -6.7013442516326904e-02 7.5142264366149902e-01</leafValues></_>
        <_>
          <internalNodes>
            0 -1 495 -4.7423403710126877e-02</internalNodes>
          <leafValues>
            6.1687666177749634e-01 -1.1025875061750412e-01</leafValues></_>
        <_>
          <internalNodes>
            0 -1 72 -2.9181104153394699e-02</internalNodes>
          <leafValues>
            6.9337576627731323e-01 -9.6754565834999084e-02</leafValues></_>
        <_>
          <internalNodes>
            0 -1 369 5.8777024969458580e-04</internalNodes>
          <leafValues>
            -1.1632406711578369e-01 6.3492709398269653e-01</leafValues></_>
        <_>
          <internalNodes>
            0 -1 250 4.7436791646759957e-05</internalNodes>
          <leafValues>
            1.9796635210514069e-01 -3.5927718877792358e-01</leafValues></_>
        <_>
          <internalNodes>
            0 -1 406 2.2602004173677415e-04</internalNodes>
          <leafValues>
            -1.1618718504905701e-01 6.1316096782684326e-01</leafValues></_>
        <_>
          <internalNodes>
            0 -1 181 4.3683667900040746e-04</internalNodes>
          <leafValues>
            -8.3420313894748688e-02 6.3677060604095459e-01</leafValues></_>
        <_>
          <internalNodes>
            0 -1 41 -6.2299368437379599e-04</internalNodes>
          <leafValues>
            -4.7357675433158875e-01 1.4627757668495178e-01</leafValues></_>
        <_>
          <internalNodes>
            0 -1 305 -1.2014956155326217e-04</internalNodes>
          <leafValues>
            4.8239359259605408e-01 -1.2544997036457062e-01</leafValues></_>
        <_>
          <internalNodes>
            0 -1 448 -4.1546620195731521e-04</internalNodes>
          <leafValues>
            6.9866043329238892e-01 -8.1676110625267029e-02</leafValues></_>
        <_>
          <internalNodes>
            0 -1 91 -1.0861745104193687e-03</internalNodes>
          <leafValues>
            -4.1979154944419861e-01 1.4975544810295105e-01</leafValues></_>
        <_>
          <internalNodes>
            0 -1 305 2.8613174799829721e-04</internalNodes>
          <leafValues>
            -7.7419497072696686e-02 7.6963603496551514e-01</leafValues></_>
        <_>
          <internalNodes>
            0 -1 245 -2.3212049156427383e-02</internalNodes>
          <leafValues>
            4.8459014296531677e-01 -1.1627226322889328e-01</leafValues></_>
        <_>
          <internalNodes>
            0 -1 161 4.2573325335979462e-02</internalNodes>
          <leafValues>
            -1.1978769302368164e-01 5.5549031496047974e-01</leafValues></_>
        <_>
          <internalNodes>
            0 -1 589 1.9022377207875252e-02</internalNodes>
          <leafValues>
            -1.5468716621398926e-01 3.7911823391914368e-01</leafValues></_>
        <_>
          <internalNodes>
            0 -1 551 -8.5938116535544395e-03</internalNodes>
          <leafValues>
            5.1179665327072144e-01 -1.3709180057048798e-01</leafValues></_>
        <_>
          <internalNodes>
            0 -1 404 1.2382562272250652e-04</internalNodes>
          <leafValues>
            -1.4260883629322052e-01 4.8440080881118774e-01</leafValues></_>
        <_>
          <internalNodes>
            0 -1 417 8.8882418349385262e-03</internalNodes>
          <leafValues>
            9.9534958600997925e-02 -7.5794309377670288e-01</leafValues></_>
        <_>
          <internalNodes>
            0 -1 490 2.3579751723445952e-04</internalNodes>
          <leafValues>
            -1.0625964403152466e-01 7.2233045101165771e-01</leafValues></_>
        <_>
          <internalNodes>
            0 -1 572 -2.2600212832912803e-04</internalNodes>
          <leafValues>
            -3.8895913958549500e-01 1.7941124737262726e-01</leafValues></_>
        <_>
          <internalNodes>
            0 -1 356 2.7195014990866184e-04</internalNodes>
          <leafValues>
            -9.9628634750843048e-02 7.0785343647003174e-01</leafValues></_>
        <_>
          <internalNodes>
            0 -1 203 5.1438849186524749e-04</internalNodes>
          <leafValues>
            -6.0756608843803406e-02 8.9694255590438843e-01</leafValues></_>
        <_>
          <internalNodes>
            0 -1 5 -5.6173640768975019e-04</internalNodes>
          <leafValues>
            -5.1644605398178101e-01 1.5012353658676147e-01</leafValues></_>
        <_>
          <internalNodes>
            0 -1 569 -1.5660463832318783e-03</internalNodes>
          <leafValues>
            -5.5173897743225098e-01 1.0651014745235443e-01</leafValues></_>
        <_>
          <internalNodes>
            0 -1 214 -3.0998114380054176e-04</internalNodes>
          <leafValues>
            6.2215447425842285e-01 -1.1574205756187439e-01</leafValues></_>
        <_>
          <internalNodes>
            0 -1 479 -4.9479154404252768e-04</internalNodes>
          <leafValues>
            7.9410332441329956e-01 -6.5183535218238831e-02</leafValues></_>
        <_>
          <internalNodes>
            0 -1 419 2.7457874966785312e-04</internalNodes>
          <leafValues>
            -1.4450740814208984e-01 4.0166816115379333e-01</leafValues></_></weakClassifiers></_>
    <!-- stage 6 -->
    <_>
      <maxWeakCount>31</maxWeakCount>
      <stageThreshold>-7.4343210458755493e-01</stageThreshold>
      <weakClassifiers>
        <_>
          <internalNodes>
            0 -1 420 -7.7488832175731659e-04</internalNodes>
          <leafValues>
            4.8926013708114624e-01 -1.3123359531164169e-02</leafValues></_>
        <_>
          <internalNodes>
            0 -1 110 -9.9660921841859818e-03</internalNodes>
          <leafValues>
            5.5765038728713989e-01 -1.0032030194997787e-01</leafValues></_>
        <_>
          <internalNodes>
            0 -1 87 1.5612743794918060e-02</internalNodes>
          <leafValues>
            -1.3956630229949951e-01 4.9265727400779724e-01</leafValues></_>
        <_>
          <internalNodes>
            0 -1 279 6.7240208387374878e-02</internalNodes>
          <leafValues>
            -1.0486895591020584e-01 5.2164810895919800e-01</leafValues></_>
        <_>
          <internalNodes>
            0 -1 320 -8.5866404697299004e-03</internalNodes>
          <leafValues>
            4.8022598028182983e-01 -1.1378066241741180e-01</leafValues></_>
        <_>
          <internalNodes>
            0 -1 42 -1.9421983510255814e-02</internalNodes>
          <leafValues>
            4.2462757229804993e-01 -1.5748068690299988e-01</leafValues></_>
        <_>
          <internalNodes>
            0 -1 426 4.6253431355580688e-04</internalNodes>
          <leafValues>
            -7.9286009073257446e-02 7.2814607620239258e-01</leafValues></_>
        <_>
          <internalNodes>
            0 -1 328 -6.3174800015985966e-04</internalNodes>
          <leafValues>
            4.4934818148612976e-01 -1.2295379489660263e-01</leafValues></_>
        <_>
          <internalNodes>
            0 -1 296 1.5933503163978457e-03</internalNodes>
          <leafValues>
            -1.5659619867801666e-01 3.5606667399406433e-01</leafValues></_>
        <_>
          <internalNodes>
            0 -1 344 -3.4407995641231537e-02</internalNodes>
          <leafValues>
            4.8185893893241882e-01 -1.2094284594058990e-01</leafValues></_>
        <_>
          <internalNodes>
            0 -1 38 4.0910681127570570e-04</internalNodes>
          <leafValues>
            1.5835677087306976e-01 -3.9866724610328674e-01</leafValues></_>
        <_>
          <internalNodes>
            0 -1 347 -1.3515970204025507e-04</internalNodes>
          <leafValues>
            4.6637031435966492e-01 -1.2423012405633926e-01</leafValues></_>
        <_>
          <internalNodes>
            0 -1 268 -5.9868994867429137e-05</internalNodes>
          <leafValues>
            -5.0602680444717407e-01 1.2018456310033798e-01</leafValues></_>
        <_>
          <internalNodes>
            0 -1 525 8.2673393189907074e-03</internalNodes>
          <leafValues>
            -1.4587856829166412e-01 4.0509647130966187e-01</leafValues></_>
        <_>
          <internalNodes>
            0 -1 415 -4.4673822820186615e-02</internalNodes>
          <leafValues>
            -6.0502207279205322e-01 1.0497044026851654e-01</leafValues></_>
        <_>
          <internalNodes>
            0 -1 457 4.4757957221008837e-04</internalNodes>
          <leafValues>
            -2.3354691267013550e-01 2.9859358072280884e-01</leafValues></_>
        <_>
          <internalNodes>
            0 -1 266 -8.0300174886360765e-04</internalNodes>
          <leafValues>
            7.8129845857620239e-01 -8.3448976278305054e-02</leafValues></_>
        <_>
          <internalNodes>
            0 -1 559 3.6370153538882732e-03</internalNodes>
          <leafValues>
            -1.0566678643226624e-01 4.6490624547004700e-01</leafValues></_>
        <_>
          <internalNodes>
            0 -1 291 3.3233262365683913e-04</internalNodes>
          <leafValues>
            -7.8148603439331055e-02 6.2037557363510132e-01</leafValues></_>
        <_>
          <internalNodes>
            0 -1 151 -7.1675693616271019e-03</internalNodes>
          <leafValues>
            4.0842777490615845e-01 -1.3890434801578522e-01</leafValues></_>
        <_>
          <internalNodes>
            0 -1 190 -1.2928837677463889e-03</internalNodes>
          <leafValues>
            3.4619918465614319e-01 -1.5707214176654816e-01</leafValues></_>
        <_>
          <internalNodes>
            0 -1 201 1.7274556681513786e-02</internalNodes>
          <leafValues>
            1.0064603388309479e-01 -6.3583761453628540e-01</leafValues></_>
        <_>
          <internalNodes>
            0 -1 388 -1.8320887465961277e-04</internalNodes>
          <leafValues>
            4.9642103910446167e-01 -1.2410546839237213e-01</leafValues></_>
        <_>
          <internalNodes>
            0 -1 620 -3.5252287052571774e-03</internalNodes>
          <leafValues>
            -6.2811225652694702e-01 1.0263147950172424e-01</leafValues></_>
        <_>
          <internalNodes>
            0 -1 325 -1.9989791326224804e-04</internalNodes>
          <leafValues>
            3.5933303833007812e-01 -1.8075719475746155e-01</leafValues></_>
        <_>
          <internalNodes>
            0 -1 218 1.8413169309496880e-03</internalNodes>
          <leafValues>
            -1.5911230444908142e-01 3.9607560634613037e-01</leafValues></_>
        <_>
          <internalNodes>
            0 -1 593 -6.9473008625209332e-04</internalNodes>
          <leafValues>
            6.1316907405853271e-01 -9.4800174236297607e-02</leafValues></_>
        <_>
          <internalNodes>
            0 -1 71 -1.0138353100046515e-03</internalNodes>
          <leafValues>
            -4.3234568834304810e-01 1.5503466129302979e-01</leafValues></_>
        <_>
          <internalNodes>
            0 -1 397 -7.0364156272262335e-04</internalNodes>
          <leafValues>
            6.1170649528503418e-01 -1.0627203434705734e-01</leafValues></_>
        <_>
          <internalNodes>
            0 -1 70 -1.8332099542021751e-02</internalNodes>
          <leafValues>
            5.7142055034637451e-01 -1.0728351771831512e-01</leafValues></_>
        <_>
          <internalNodes>
            0 -1 150 1.5561716863885522e-03</internalNodes>
          <leafValues>
            -1.8195660412311554e-01 3.4156087040901184e-01</leafValues></_></weakClassifiers></_>
    <!-- stage 7 -->
    <_>
      <maxWeakCount>35</maxWeakCount>
      <stageThreshold>-1.0148298740386963e+00</stageThreshold>
      <weakClassifiers>
        <_>
          <internalNodes>
            0 -1 0 -2.4016168026719242e-04</internalNodes>
          <leafValues>
            -1.4987714588642120e-01 3.8642078638076782e-01</leafValues></_>
        <_>
          <internalNodes>
            0 -1 231 -2.4157464504241943e-02</internalNodes>
          <leafValues>
            6.9347125291824341e-01 -7.4830584228038788e-02</leafValues></_>
        <_>
          <internalNodes>
            0 -1 82 -1.7321832478046417e-02</internalNodes>
          <leafValues>
            5.3643828630447388e-01 -1.5082032978534698e-01</leafValues></_>
        <_>
          <internalNodes>
            0 -1 360 1.4026682823896408e-02</internalNodes>
          <leafValues>
            -1.5795172750949860e-01 3.7356525659561157e-01</leafValues></_>
        <_>
          <internalNodes>
            0 -1 285 -3.6811428144574165e-03</internalNodes>
          <leafValues>
            2.9984173178672791e-01 -1.9248729944229126e-01</leafValues></_>
        <_>
          <internalNodes>
            0 -1 234 -6.9186106324195862e-02</internalNodes>
          <leafValues>
            4.5049208402633667e-01 -1.4437916874885559e-01</leafValues></_>
        <_>
          <internalNodes>
            0 -1 95 -5.8531397953629494e-03</internalNodes>
          <leafValues>
            4.1501122713088989e-01 -1.2272727489471436e-01</leafValues></_>
        <_>
          <internalNodes>
            0 -1 447 1.1424963304307312e-04</internalNodes>
          <leafValues>
            -1.6102032363414764e-01 3.5405889153480530e-01</leafValues></_>
        <_>
          <internalNodes>
            0 -1 443 -3.9660662878304720e-05</internalNodes>
          <leafValues>
            -3.1916847825050354e-01 1.6486544907093048e-01</leafValues></_>
        <_>
          <internalNodes>
            0 -1 313 5.8247614651918411e-04</internalNodes>
          <leafValues>
            -6.8113602697849274e-02 7.5134527683258057e-01</leafValues></_>
        <_>
          <internalNodes>
            0 -1 54 1.5530230011790991e-03</internalNodes>
          <leafValues>
            1.6169758141040802e-01 -3.2384830713272095e-01</leafValues></_>
        <_>
          <internalNodes>
            0 -1 196 7.0861685089766979e-03</internalNodes>
          <leafValues>
            8.8431671261787415e-02 -5.7076859474182129e-01</leafValues></_>
        <_>
          <internalNodes>
            0 -1 604 -2.8484751237556338e-04</internalNodes>
          <leafValues>
            -3.5244479775428772e-01 1.3262802362442017e-01</leafValues></_>
        <_>
          <internalNodes>
            0 -1 290 -4.4277269626036286e-04</internalNodes>
          <leafValues>
            6.6609072685241699e-01 -7.9341009259223938e-02</leafValues></_>
        <_>
          <internalNodes>
            0 -1 125 -3.3478234399808571e-05</internalNodes>
          <leafValues>
            -3.4526115655899048e-01 1.6161833703517914e-01</leafValues></_>
        <_>
          <internalNodes>
            0 -1 314 -9.2574162408709526e-04</internalNodes>
          <leafValues>
            4.5494377613067627e-01 -1.0183987021446228e-01</leafValues></_>
        <_>
          <internalNodes>
            0 -1 184 -3.8003106601536274e-03</internalNodes>
          <leafValues>
            2.6792517304420471e-01 -1.7610938847064972e-01</leafValues></_>
        <_>
          <internalNodes>
            0 -1 14 3.2831460703164339e-03</internalNodes>
          <leafValues>
            -1.4141935110092163e-01 3.5807946324348450e-01</leafValues></_>
        <_>
          <internalNodes>
            0 -1 585 3.9775806362740695e-04</internalNodes>
          <leafValues>
            -7.1148626506328583e-02 6.1424058675765991e-01</leafValues></_>
        <_>
          <internalNodes>
            0 -1 40 1.6795974224805832e-03</internalNodes>
          <leafValues>
            1.2610729038715363e-01 -4.3600079417228699e-01</leafValues></_>
        <_>
          <internalNodes>
            0 -1 446 3.1964923255145550e-04</internalNodes>
          <leafValues>
            -9.0501375496387482e-02 6.2857598066329956e-01</leafValues></_>
        <_>
          <internalNodes>
            0 -1 153 7.1398001164197922e-03</internalNodes>
          <leafValues>
            -1.3539417088031769e-01 3.3750995993614197e-01</leafValues></_>
        <_>
          <internalNodes>
            0 -1 17 7.0080100558698177e-03</internalNodes>
          <leafValues>
            -1.1364109814167023e-01 4.4986426830291748e-01</leafValues></_>
        <_>
          <internalNodes>
            0 -1 340 1.2764566577970982e-02</internalNodes>
          <leafValues>
            -1.0465095937252045e-01 4.9844962358474731e-01</leafValues></_>
        <_>
          <internalNodes>
            0 -1 451 5.4467527661472559e-04</internalNodes>
          <leafValues>
            -8.8844560086727142e-02 5.8921676874160767e-01</leafValues></_>
        <_>
          <internalNodes>
            0 -1 564 -4.4168042950332165e-04</internalNodes>
          <leafValues>
            3.7303406000137329e-01 -1.3706564903259277e-01</leafValues></_>
        <_>
          <internalNodes>
            0 -1 566 -3.9654332213103771e-03</internalNodes>
          <leafValues>
            3.6665144562721252e-01 -1.3387751579284668e-01</leafValues></_>
        <_>
          <internalNodes>
            0 -1 621 -1.6769400099292397e-04</internalNodes>
          <leafValues>
            -2.9493048787117004e-01 1.7592783272266388e-01</leafValues></_>
        <_>
          <internalNodes>
            0 -1 524 -4.5959273120388389e-04</internalNodes>
          <leafValues>
            4.0141913294792175e-01 -1.3605232536792755e-01</leafValues></_>
        <_>
          <internalNodes>
            0 -1 598 3.4463431802578270e-05</internalNodes>
          <leafValues>
            1.7949497699737549e-01 -2.9259049892425537e-01</leafValues></_>
        <_>
          <internalNodes>
            0 -1 399 -2.0653649698942900e-05</internalNodes>
          <leafValues>
            -3.3383443951606750e-01 1.5935167670249939e-01</leafValues></_>
        <_>
          <internalNodes>
            0 -1 503 -1.6536784823983908e-04</internalNodes>
          <leafValues>
            2.7484148740768433e-01 -2.1523492038249969e-01</leafValues></_>
        <_>
          <internalNodes>
            0 -1 182 -4.9506884533911943e-04</internalNodes>
          <leafValues>
            4.2188975214958191e-01 -1.2523803114891052e-01</leafValues></_>
        <_>
          <internalNodes>
            0 -1 507 -6.2775681726634502e-05</internalNodes>
          <leafValues>
            -2.6159325242042542e-01 2.1175807714462280e-01</leafValues></_>
        <_>
          <internalNodes>
            0 -1 563 2.4445289454888552e-05</internalNodes>
          <leafValues>
            1.6496565937995911e-01 -3.2861867547035217e-01</leafValues></_></weakClassifiers></_>
    <!-- stage 8 -->
    <_>
      <maxWeakCount>35</maxWeakCount>
      <stageThreshold>-9.9808895587921143e-01</stageThreshold>
      <weakClassifiers>
        <_>
          <internalNodes>
            0 -1 547 2.3514723405241966e-02</internalNodes>
          <leafValues>
            1.0476190596818924e-01 6.2696629762649536e-01</leafValues></_>
        <_>
          <internalNodes>
            0 -1 529 -8.9944237843155861e-03</internalNodes>
          <leafValues>
            5.1061564683914185e-01 -1.2871725857257843e-01</leafValues></_>
        <_>
          <internalNodes>
            0 -1 2 -1.3523620367050171e-01</internalNodes>
          <leafValues>
            5.1749950647354126e-01 -1.1051098257303238e-01</leafValues></_>
        <_>
          <internalNodes>
            0 -1 217 -3.1135682016611099e-02</internalNodes>
          <leafValues>
            6.8911439180374146e-01 -7.2629399597644806e-02</leafValues></_>
        <_>
          <internalNodes>
            0 -1 614 9.1780268121510744e-04</internalNodes>
          <leafValues>
            1.0285528749227524e-01 -4.7236832976341248e-01</leafValues></_>
        <_>
          <internalNodes>
            0 -1 452 2.6057194918394089e-02</internalNodes>
          <leafValues>
            -1.0125764459371567e-01 5.7095074653625488e-01</leafValues></_>
        <_>
          <internalNodes>
            0 -1 602 1.5869052149355412e-03</internalNodes>
          <leafValues>
            7.1477167308330536e-02 -5.8814239501953125e-01</leafValues></_>
        <_>
          <internalNodes>
            0 -1 195 -5.1492493366822600e-04</internalNodes>
          <leafValues>
            7.6921343803405762e-01 -6.4974173903465271e-02</leafValues></_>
        <_>
          <internalNodes>
            0 -1 12 -1.0117221972905099e-04</internalNodes>
          <leafValues>
            -2.5184339284896851e-01 2.0276792347431183e-01</leafValues></_>
        <_>
          <internalNodes>
            0 -1 109 -4.1128101292997599e-04</internalNodes>
          <leafValues>
            8.9565682411193848e-01 -6.1503991484642029e-02</leafValues></_>
        <_>
          <internalNodes>
            0 -1 336 2.9753637500107288e-04</internalNodes>
          <leafValues>
            -6.0108359903097153e-02 6.8941730260848999e-01</leafValues></_>
        <_>
          <internalNodes>
            0 -1 615 -1.0828033555299044e-04</internalNodes>
          <leafValues>
            -3.8235175609588623e-01 1.4952380955219269e-01</leafValues></_>
        <_>
          <internalNodes>
            0 -1 342 7.2997738607227802e-04</internalNodes>
          <leafValues>
            -1.4454212784767151e-01 3.8297840952873230e-01</leafValues></_>
        <_>
          <internalNodes>
            0 -1 122 -1.2461800361052155e-04</internalNodes>
          <leafValues>
            -3.4555900096893311e-01 1.6315200924873352e-01</leafValues></_>
        <_>
          <internalNodes>
            0 -1 107 -6.4502155873924494e-04</internalNodes>
          <leafValues>
            8.7626582384109497e-01 -6.1492044478654861e-02</leafValues></_>
        <_>
          <internalNodes>
            0 -1 557 -1.2926256204082165e-05</internalNodes>
          <leafValues>
            -2.5806951522827148e-01 1.9563668966293335e-01</leafValues></_>
        <_>
          <internalNodes>
            0 -1 450 -5.4884480778127909e-04</internalNodes>
          <leafValues>
            8.1712085008621216e-01 -6.5916419029235840e-02</leafValues></_>
        <_>
          <internalNodes>
            0 -1 93 -7.0790003519505262e-04</internalNodes>
          <leafValues>
            -5.5916321277618408e-01 1.0357748717069626e-01</leafValues></_>
        <_>
          <internalNodes>
            0 -1 338 1.8056355416774750e-02</internalNodes>
          <leafValues>
            -1.4381155371665955e-01 3.6071956157684326e-01</leafValues></_>
        <_>
          <internalNodes>
            0 -1 376 1.2348153628408909e-02</internalNodes>
          <leafValues>
            -1.3227368891239166e-01 4.2801475524902344e-01</leafValues></_>
        <_>
          <internalNodes>
            0 -1 126 1.5535265207290649e-02</internalNodes>
          <leafValues>
            -1.3591799139976501e-01 3.8964262604713440e-01</leafValues></_>
        <_>
          <internalNodes>
            0 -1 208 -3.2343046768801287e-05</internalNodes>
          <leafValues>
            -2.6491582393646240e-01 2.1328993141651154e-01</leafValues></_>
        <_>
          <internalNodes>
            0 -1 358 -1.6859466210007668e-02</internalNodes>
          <leafValues>
            4.0350791811943054e-01 -1.4649297297000885e-01</leafValues></_>
        <_>
          <internalNodes>
            0 -1 294 -9.5228361897170544e-04</internalNodes>
          <leafValues>
            7.1329170465469360e-01 -6.7473948001861572e-02</leafValues></_>
        <_>
          <internalNodes>
            0 -1 424 -3.8034660974517465e-04</internalNodes>
          <leafValues>
            3.5449656844139099e-01 -1.4922623336315155e-01</leafValues></_>
        <_>
          <internalNodes>
            0 -1 36 3.2616041600704193e-02</internalNodes>
          <leafValues>
            -1.3566704094409943e-01 4.1451340913772583e-01</leafValues></_>
        <_>
          <internalNodes>
            0 -1 81 -2.1308857947587967e-02</internalNodes>
          <leafValues>
            4.0508213639259338e-01 -1.5784221887588501e-01</leafValues></_>
        <_>
          <internalNodes>
            0 -1 409 -6.9597130641341209e-04</internalNodes>
          <leafValues>
            7.4361085891723633e-01 -6.4607903361320496e-02</leafValues></_>
        <_>
          <internalNodes>
            0 -1 78 3.9357010973617435e-04</internalNodes>
          <leafValues>
            1.7721787095069885e-01 -3.2745260000228882e-01</leafValues></_>
        <_>
          <internalNodes>
            0 -1 583 -6.6117476671934128e-04</internalNodes>
          <leafValues>
            6.3078492879867554e-01 -9.0752489864826202e-02</leafValues></_>
        <_>
          <internalNodes>
            0 -1 335 -1.5818781685084105e-03</internalNodes>
          <leafValues>
            6.3466727733612061e-01 -7.6745964586734772e-02</leafValues></_>
        <_>
          <internalNodes>
            0 -1 351 1.8415019439999014e-04</internalNodes>
          <leafValues>
            -8.8719539344310760e-02 5.5784898996353149e-01</leafValues></_>
        <_>
          <internalNodes>
            0 -1 407 -3.8125668652355671e-03</internalNodes>
          <leafValues>
            -7.2550326585769653e-01 8.7889745831489563e-02</leafValues></_>
        <_>
          <internalNodes>
            0 -1 80 5.3613679483532906e-03</internalNodes>
          <leafValues>
            6.1466440558433533e-02 -7.3079764842987061e-01</leafValues></_>
        <_>
          <internalNodes>
            0 -1 29 -1.1738610919564962e-04</internalNodes>
          <leafValues>
            -3.6700916290283203e-01 1.4737115800380707e-01</leafValues></_></weakClassifiers></_>
    <!-- stage 9 -->
    <_>
      <maxWeakCount>38</maxWeakCount>
      <stageThreshold>-9.1189980506896973e-01</stageThreshold>
      <weakClassifiers>
        <_>
          <internalNodes>
            0 -1 270 -5.5154184810817242e-03</internalNodes>
          <leafValues>
            5.6972110271453857e-01 1.0382513701915741e-01</leafValues></_>
        <_>
          <internalNodes>
            0 -1 329 -3.0789461452513933e-03</internalNodes>
          <leafValues>
            2.9012155532836914e-01 -1.8506914377212524e-01</leafValues></_>
        <_>
          <internalNodes>
            0 -1 464 5.6601546704769135e-02</internalNodes>
          <leafValues>
            -1.2002680450677872e-01 4.0216016769409180e-01</leafValues></_>
        <_>
          <internalNodes>
            0 -1 527 -1.3093208894133568e-02</internalNodes>
          <leafValues>
            4.2282402515411377e-01 -1.2333614379167557e-01</leafValues></_>
        <_>
          <internalNodes>
            0 -1 363 -2.3353045806288719e-02</internalNodes>
          <leafValues>
            -7.7838253974914551e-01 3.9354190230369568e-02</leafValues></_>
        <_>
          <internalNodes>
            0 -1 326 -2.7839781250804663e-04</internalNodes>
          <leafValues>
            4.2069700360298157e-01 -1.1095640808343887e-01</leafValues></_>
        <_>
          <internalNodes>
            0 -1 539 -3.3446513116359711e-02</internalNodes>
          <leafValues>
            4.2332041263580322e-01 -1.1099345982074738e-01</leafValues></_>
        <_>
          <internalNodes>
            0 -1 352 -5.0352863036096096e-03</internalNodes>
          <leafValues>
            4.0724939107894897e-01 -1.1355410516262054e-01</leafValues></_>
        <_>
          <internalNodes>
            0 -1 228 -1.3485838659107685e-02</internalNodes>
          <leafValues>
            4.0146410465240479e-01 -1.4508648216724396e-01</leafValues></_>
        <_>
          <internalNodes>
            0 -1 159 -2.4753432720899582e-02</internalNodes>
          <leafValues>
            4.2063084244728088e-01 -1.2554629147052765e-01</leafValues></_>
        <_>
          <internalNodes>
            0 -1 350 -1.1471470352262259e-03</internalNodes>
          <leafValues>
            2.5453582406044006e-01 -1.7766951024532318e-01</leafValues></_>
        <_>
          <internalNodes>
            0 -1 205 -3.0645667720818892e-05</internalNodes>
          <leafValues>
            -2.5526502728462219e-01 1.7699266970157623e-01</leafValues></_>
        <_>
          <internalNodes>
            0 -1 520 -5.1396898925304413e-04</internalNodes>
          <leafValues>
            7.8162461519241333e-01 -5.5248867720365524e-02</leafValues></_>
        <_>
          <internalNodes>
            0 -1 588 -2.6916603092104197e-03</internalNodes>
          <leafValues>
            -4.1247016191482544e-01 1.2768715620040894e-01</leafValues></_>
        <_>
          <internalNodes>
            0 -1 567 -4.9274682532995939e-04</internalNodes>
          <leafValues>
            7.8709185123443604e-01 -6.7810565233230591e-02</leafValues></_>
        <_>
          <internalNodes>
            0 -1 92 -5.3967869462212548e-05</internalNodes>
          <leafValues>
            -2.9520824551582336e-01 1.7239926755428314e-01</leafValues></_>
        <_>
          <internalNodes>
            0 -1 148 -6.1438870034180582e-05</internalNodes>
          <leafValues>
            -3.3797958493232727e-01 1.3932755589485168e-01</leafValues></_>
        <_>
          <internalNodes>
            0 -1 305 1.7068524903152138e-04</internalNodes>
          <leafValues>
            -9.5118954777717590e-02 5.0330930948257446e-01</leafValues></_>
        <_>
          <internalNodes>
            0 -1 206 1.9384826373425312e-05</internalNodes>
          <leafValues>
            1.7721971869468689e-01 -2.9049324989318848e-01</leafValues></_>
        <_>
          <internalNodes>
            0 -1 302 2.1932958043180406e-04</internalNodes>
          <leafValues>
            -1.0146362334489822e-01 5.8697670698165894e-01</leafValues></_>
        <_>
          <internalNodes>
            0 -1 107 -4.8434245400130749e-04</internalNodes>
          <leafValues>
            7.2117936611175537e-01 -4.9553748220205307e-02</leafValues></_>
        <_>
          <internalNodes>
            0 -1 616 5.7050707982853055e-04</internalNodes>
          <leafValues>
            1.2101984769105911e-01 -4.6773758530616760e-01</leafValues></_>
        <_>
          <internalNodes>
            0 -1 379 -2.8672851622104645e-02</internalNodes>
          <leafValues>
            6.3751012086868286e-01 -8.4038108587265015e-02</leafValues></_>
        <_>
          <internalNodes>
            0 -1 422 1.3157763169147074e-04</internalNodes>
          <leafValues>
            -1.1127725988626480e-01 4.1187959909439087e-01</leafValues></_>
        <_>
          <internalNodes>
            0 -1 223 -6.4585707150399685e-04</internalNodes>
          <leafValues>
            8.4853100776672363e-01 -5.1556676626205444e-02</leafValues></_>
        <_>
          <internalNodes>
            0 -1 315 -6.7719691433012486e-03</internalNodes>
          <leafValues>
            5.3447425365447998e-01 -7.8014291822910309e-02</leafValues></_>
        <_>
          <internalNodes>
            0 -1 282 -1.7961898265639320e-05</internalNodes>
          <leafValues>
            -3.6580428481101990e-01 1.4805431663990021e-01</leafValues></_>
        <_>
          <internalNodes>
            0 -1 111 -3.8701022276654840e-04</internalNodes>
          <leafValues>
            5.7841312885284424e-01 -9.2357620596885681e-02</leafValues></_>
        <_>
          <internalNodes>
            0 -1 66 -5.1543704466894269e-04</internalNodes>
          <leafValues>
            -4.7620230913162231e-01 1.1972135305404663e-01</leafValues></_>
        <_>
          <internalNodes>
            0 -1 498 -3.9341830415651202e-04</internalNodes>
          <leafValues>
            2.5135865807533264e-01 -2.1170297265052795e-01</leafValues></_>
        <_>
          <internalNodes>
            0 -1 449 -3.0622864142060280e-04</internalNodes>
          <leafValues>
            3.5347113013267517e-01 -1.3324704766273499e-01</leafValues></_>
        <_>
          <internalNodes>
            0 -1 308 -5.5831288918852806e-03</internalNodes>
          <leafValues>
            -6.1401432752609253e-01 8.3940155804157257e-02</leafValues></_>
        <_>
          <internalNodes>
            0 -1 306 6.3058082014322281e-03</internalNodes>
          <leafValues>
            7.3147982358932495e-02 -6.4052832126617432e-01</leafValues></_>
        <_>
          <internalNodes>
            0 -1 468 -3.0195497674867511e-04</internalNodes>
          <leafValues>
            5.0834071636199951e-01 -1.1557909101247787e-01</leafValues></_>
        <_>
          <internalNodes>
            0 -1 348 -2.2005915525369346e-04</internalNodes>
          <leafValues>
            3.0884048342704773e-01 -1.6396909952163696e-01</leafValues></_>
        <_>
          <internalNodes>
            0 -1 204 -2.6664645702112466e-05</internalNodes>
          <leafValues>
            -3.4997946023941040e-01 1.7311121523380280e-01</leafValues></_>
        <_>
          <internalNodes>
            0 -1 116 -4.9239839427173138e-04</internalNodes>
          <leafValues>
            3.6485534906387329e-01 -1.4582173526287079e-01</leafValues></_>
        <_>
          <internalNodes>
            0 -1 143 1.0065163951367140e-03</internalNodes>
          <leafValues>
            -1.5683549642562866e-01 3.3044421672821045e-01</leafValues></_></weakClassifiers></_>
    <!-- stage 10 -->
    <_>
      <maxWeakCount>34</maxWeakCount>
      <stageThreshold>-8.4838217496871948e-01</stageThreshold>
      <weakClassifiers>
        <_>
          <internalNodes>
            0 -1 26 -7.6618534512817860e-04</internalNodes>
          <leafValues>
            -2.8327643871307373e-01 3.6954858899116516e-01</leafValues></_>
        <_>
          <internalNodes>
            0 -1 511 -7.5006544589996338e-02</internalNodes>
          <leafValues>
            7.7331590652465820e-01 -7.0790268480777740e-02</leafValues></_>
        <_>
          <internalNodes>
            0 -1 509 3.7316597998142242e-02</internalNodes>
          <leafValues>
            -2.8114297986030579e-01 3.7132680416107178e-01</leafValues></_>
        <_>
          <internalNodes>
            0 -1 317 6.0581091791391373e-02</internalNodes>
          <leafValues>
            -5.5668432265520096e-02 8.1343656778335571e-01</leafValues></_>
        <_>
          <internalNodes>
            0 -1 398 -9.1411182656884193e-03</internalNodes>
          <leafValues>
            3.3885437250137329e-01 -1.6873350739479065e-01</leafValues></_>
        <_>
          <internalNodes>
            0 -1 442 -3.8267047784756869e-05</internalNodes>
          <leafValues>
            -3.5632359981536865e-01 1.5148796141147614e-01</leafValues></_>
        <_>
          <internalNodes>
            0 -1 239 -1.9890535622835159e-02</internalNodes>
          <leafValues>
            3.7180572748184204e-01 -1.1956889182329178e-01</leafValues></_>
        <_>
          <internalNodes>
            0 -1 34 -2.1049816161394119e-02</internalNodes>
          <leafValues>
            2.6545774936676025e-01 -2.0865878462791443e-01</leafValues></_>
        <_>
          <internalNodes>
            0 -1 59 3.9247389882802963e-02</internalNodes>
          <leafValues>
            -1.8137793242931366e-01 5.5170351266860962e-01</leafValues></_>
        <_>
          <internalNodes>
            0 -1 53 -3.3494234085083008e-02</internalNodes>
          <leafValues>
            4.2383000254631042e-01 -9.6347391605377197e-02</leafValues></_>
        <_>
          <internalNodes>
            0 -1 575 -1.4716988662257791e-03</internalNodes>
          <leafValues>
            4.6820136904716492e-01 -1.3310608267784119e-01</leafValues></_>
        <_>
          <internalNodes>
            0 -1 55 1.9382114987820387e-03</internalNodes>
          <leafValues>
            9.1681964695453644e-02 -5.8737879991531372e-01</leafValues></_>
        <_>
          <internalNodes>
            0 -1 229 -2.0570991182466969e-05</internalNodes>
          <leafValues>
            -3.0608502030372620e-01 1.3644199073314667e-01</leafValues></_>
        <_>
          <internalNodes>
            0 -1 613 4.1322293691337109e-03</internalNodes>
          <leafValues>
            1.1140207201242447e-01 -4.3496975302696228e-01</leafValues></_>
        <_>
          <internalNodes>
            0 -1 173 6.0639012372121215e-04</internalNodes>
          <leafValues>
            -1.2893478572368622e-01 3.6642056703567505e-01</leafValues></_>
        <_>
          <internalNodes>
            0 -1 175 -7.3822971899062395e-04</internalNodes>
          <leafValues>
            3.1763902306556702e-01 -1.5267328917980194e-01</leafValues></_>
        <_>
          <internalNodes>
            0 -1 531 -3.5643801093101501e-03</internalNodes>
          <leafValues>
            3.1473061442375183e-01 -1.6288821399211884e-01</leafValues></_>
        <_>
          <internalNodes>
            0 -1 121 -4.2117804696317762e-05</internalNodes>
          <leafValues>
            -3.3353710174560547e-01 1.7197862267494202e-01</leafValues></_>
        <_>
          <internalNodes>
            0 -1 484 2.5778972485568374e-05</internalNodes>
          <leafValues>
            1.5658521652221680e-01 -3.0195993185043335e-01</leafValues></_>
        <_>
          <internalNodes>
            0 -1 289 5.4823653772473335e-03</internalNodes>
          <leafValues>
            8.5562378168106079e-02 -5.7331925630569458e-01</leafValues></_>
        <_>
          <internalNodes>
            0 -1 259 -6.2704004812985659e-04</internalNodes>
          <leafValues>
            3.1858521699905396e-01 -1.5615557134151459e-01</leafValues></_>
        <_>
          <internalNodes>
            0 -1 481 4.3003274186048657e-05</internalNodes>
          <leafValues>
            1.3744843006134033e-01 -3.7246808409690857e-01</leafValues></_>
        <_>
          <internalNodes>
            0 -1 480 6.7504681646823883e-04</internalNodes>
          <leafValues>
            -1.4223271608352661e-01 3.3401572704315186e-01</leafValues></_>
        <_>
          <internalNodes>
            0 -1 461 9.1212004917906597e-06</internalNodes>
          <leafValues>
            2.0142741501331329e-01 -2.3016960918903351e-01</leafValues></_>
        <_>
          <internalNodes>
            0 -1 537 -3.1442574254469946e-05</internalNodes>
          <leafValues>
            -2.4920691549777985e-01 1.8361678719520569e-01</leafValues></_>
        <_>
          <internalNodes>
            0 -1 19 3.3412873744964600e-03</internalNodes>
          <leafValues>
            6.4267180860042572e-02 -7.2685027122497559e-01</leafValues></_>
        <_>
          <internalNodes>
            0 -1 455 -6.6335708834230900e-03</internalNodes>
          <leafValues>
            4.4483295083045959e-01 -1.1623435467481613e-01</leafValues></_>
        <_>
          <internalNodes>
            0 -1 215 4.7597475349903107e-03</internalNodes>
          <leafValues>
            -1.7217151820659637e-01 2.7445849776268005e-01</leafValues></_>
        <_>
          <internalNodes>
            0 -1 237 -4.4585196301341057e-03</internalNodes>
          <leafValues>
            -6.5755772590637207e-01 9.3221142888069153e-02</leafValues></_>
        <_>
          <internalNodes>
            0 -1 113 1.1761523783206940e-03</internalNodes>
          <leafValues>
            -1.2920209765434265e-01 4.1407877206802368e-01</leafValues></_>
        <_>
          <internalNodes>
            0 -1 354 -3.5774119896814227e-04</internalNodes>
          <leafValues>
            3.3794248104095459e-01 -1.5723349153995514e-01</leafValues></_>
        <_>
          <internalNodes>
            0 -1 607 -1.0442427592352033e-03</internalNodes>
          <leafValues>
            -3.8845953345298767e-01 1.2559047341346741e-01</leafValues></_>
        <_>
          <internalNodes>
            0 -1 603 3.0293740564957261e-04</internalNodes>
          <leafValues>
            1.2988969683647156e-01 -3.9126238226890564e-01</leafValues></_>
        <_>
          <internalNodes>
            0 -1 167 -1.2819168623536825e-03</internalNodes>
          <leafValues>
            7.4856066703796387e-01 -7.4373520910739899e-02</leafValues></_></weakClassifiers></_>
    <!-- stage 11 -->
    <_>
      <maxWeakCount>40</maxWeakCount>
      <stageThreshold>-8.2858502864837646e-01</stageThreshold>
      <weakClassifiers>
        <_>
          <internalNodes>
            0 -1 6 3.6243477370589972e-04</internalNodes>
          <leafValues>
            3.5863095521926880e-01 -3.2031250000000000e-01</leafValues></_>
        <_>
          <internalNodes>
            0 -1 9 -3.7485092878341675e-02</internalNodes>
          <leafValues>
            4.0013518929481506e-01 -1.7142592370510101e-01</leafValues></_>
        <_>
          <internalNodes>
            0 -1 49 6.7111931741237640e-02</internalNodes>
          <leafValues>
            -9.6778556704521179e-02 5.8471971750259399e-01</leafValues></_>
        <_>
          <internalNodes>
            0 -1 538 3.4984014928340912e-02</internalNodes>
          <leafValues>
            -1.0774320363998413e-01 4.6381264925003052e-01</leafValues></_>
        <_>
          <internalNodes>
            0 -1 523 -7.9687787219882011e-03</internalNodes>
          <leafValues>
            3.0851083993911743e-01 -1.8988294899463654e-01</leafValues></_>
        <_>
          <internalNodes>
            0 -1 21 -4.6731792390346527e-02</internalNodes>
          <leafValues>
            4.1722366213798523e-01 -1.5840771794319153e-01</leafValues></_>
        <_>
          <internalNodes>
            0 -1 267 9.1086784377694130e-03</internalNodes>
          <leafValues>
            -1.7462642490863800e-01 3.1785637140274048e-01</leafValues></_>
        <_>
          <internalNodes>
            0 -1 299 -1.3066740706562996e-02</internalNodes>
          <leafValues>
            4.3835383653640747e-01 -1.0266524553298950e-01</leafValues></_>
        <_>
          <internalNodes>
            0 -1 467 3.9555127732455730e-03</internalNodes>
          <leafValues>
            -1.3670599460601807e-01 3.3139446377754211e-01</leafValues></_>
        <_>
          <internalNodes>
            0 -1 83 -1.2365673482418060e-01</internalNodes>
          <leafValues>
            3.2481253147125244e-01 -1.7695215344429016e-01</leafValues></_>
        <_>
          <internalNodes>
            0 -1 269 6.3282880000770092e-03</internalNodes>
          <leafValues>
            -1.3307769596576691e-01 3.7473326921463013e-01</leafValues></_>
        <_>
          <internalNodes>
            0 -1 160 -9.5489304512739182e-03</internalNodes>
          <leafValues>
            3.4481880068778992e-01 -1.4024706184864044e-01</leafValues></_>
        <_>
          <internalNodes>
            0 -1 236 2.1963864564895630e-03</internalNodes>
          <leafValues>
            -1.6183634102344513e-01 3.6243984103202820e-01</leafValues></_>
        <_>
          <internalNodes>
            0 -1 339 -3.8931728340685368e-05</internalNodes>
          <leafValues>
            -2.9443356394767761e-01 1.9206957519054413e-01</leafValues></_>
        <_>
          <internalNodes>
            0 -1 168 7.9853215720504522e-04</internalNodes>
          <leafValues>
            -1.5721006691455841e-01 3.2437664270401001e-01</leafValues></_>
        <_>
          <internalNodes>
            0 -1 135 -1.2300683557987213e-01</internalNodes>
          <leafValues>
            -8.2446163892745972e-01 8.0822452902793884e-02</leafValues></_>
        <_>
          <internalNodes>
            0 -1 105 1.2836939422413707e-03</internalNodes>
          <leafValues>
            -8.1551410257816315e-02 7.2519814968109131e-01</leafValues></_>
        <_>
          <internalNodes>
            0 -1 15 7.3507288470864296e-04</internalNodes>
          <leafValues>
            1.1088592559099197e-01 -5.0012934207916260e-01</leafValues></_>
        <_>
          <internalNodes>
            0 -1 213 1.3813436962664127e-02</internalNodes>
          <leafValues>
            -1.0724411159753799e-01 4.7969707846641541e-01</leafValues></_>
        <_>
          <internalNodes>
            0 -1 444 9.3089707661420107e-05</internalNodes>
          <leafValues>
            1.5184609591960907e-01 -3.2736542820930481e-01</leafValues></_>
        <_>
          <internalNodes>
            0 -1 258 3.3251399872824550e-04</internalNodes>
          <leafValues>
            -1.2398824095726013e-01 4.0618184208869934e-01</leafValues></_>
        <_>
          <internalNodes>
            0 -1 20 -8.9712603949010372e-04</internalNodes>
          <leafValues>
            -5.5995470285415649e-01 8.9571945369243622e-02</leafValues></_>
        <_>
          <internalNodes>
            0 -1 274 -5.7023018598556519e-04</internalNodes>
          <leafValues>
            4.9809035658836365e-01 -9.6970163285732269e-02</leafValues></_>
        <_>
          <internalNodes>
            0 -1 154 -5.5808788602007553e-05</internalNodes>
          <leafValues>
            -2.8655076026916504e-01 1.6326357424259186e-01</leafValues></_>
        <_>
          <internalNodes>
            0 -1 310 3.8347369991242886e-04</internalNodes>
          <leafValues>
            -1.3189561665058136e-01 3.4998369216918945e-01</leafValues></_>
        <_>
          <internalNodes>
            0 -1 610 1.9436191068962216e-03</internalNodes>
          <leafValues>
            8.0695852637290955e-02 -5.8120626211166382e-01</leafValues></_>
        <_>
          <internalNodes>
            0 -1 617 -4.6879320871084929e-04</internalNodes>
          <leafValues>
            -4.1748526692390442e-01 1.1161892116069794e-01</leafValues></_>
        <_>
          <internalNodes>
            0 -1 441 -8.1955678761005402e-03</internalNodes>
          <leafValues>
            6.2029248476028442e-01 -8.0417267978191376e-02</leafValues></_>
        <_>
          <internalNodes>
            0 -1 476 5.0360038876533508e-03</internalNodes>
          <leafValues>
            -6.3328385353088379e-02 7.1704548597335815e-01</leafValues></_>
        <_>
          <internalNodes>
            0 -1 383 -3.4880857914686203e-02</internalNodes>
          <leafValues>
            -7.0111310482025146e-01 8.0034688115119934e-02</leafValues></_>
        <_>
          <internalNodes>
            0 -1 118 -3.1171295791864395e-02</internalNodes>
          <leafValues>
            5.4105442762374878e-01 -1.0880919545888901e-01</leafValues></_>
        <_>
          <internalNodes>
            0 -1 472 -1.0987663641571999e-02</internalNodes>
          <leafValues>
            -2.9784482717514038e-01 1.7659485340118408e-01</leafValues></_>
        <_>
          <internalNodes>
            0 -1 119 1.4406003057956696e-02</internalNodes>
          <leafValues>
            -1.3250824809074402e-01 4.1322875022888184e-01</leafValues></_>
        <_>
          <internalNodes>
            0 -1 120 5.3417541494127363e-05</internalNodes>
          <leafValues>
            1.8497493863105774e-01 -3.1390729546546936e-01</leafValues></_>
        <_>
          <internalNodes>
            0 -1 211 -3.5023211967200041e-04</internalNodes>
          <leafValues>
            3.4799993038177490e-01 -1.3945350050926208e-01</leafValues></_>
        <_>
          <internalNodes>
            0 -1 99 -1.1742417700588703e-03</internalNodes>
          <leafValues>
            3.9509236812591553e-01 -1.2262767553329468e-01</leafValues></_>
        <_>
          <internalNodes>
            0 -1 76 -1.7314972355961800e-03</internalNodes>
          <leafValues>
            -6.4558839797973633e-01 8.1911064684391022e-02</leafValues></_>
        <_>
          <internalNodes>
            0 -1 304 -2.9099069070070982e-04</internalNodes>
          <leafValues>
            4.9810597300529480e-01 -1.1391058564186096e-01</leafValues></_>
        <_>
          <internalNodes>
            0 -1 283 -1.7392256268067285e-05</internalNodes>
          <leafValues>
            -2.8587794303894043e-01 1.7836004495620728e-01</leafValues></_>
        <_>
          <internalNodes>
            0 -1 592 -7.0513063110411167e-04</internalNodes>
          <leafValues>
            5.5698812007904053e-01 -9.2141918838024139e-02</leafValues></_></weakClassifiers></_>
    <!-- stage 12 -->
    <_>
      <maxWeakCount>38</maxWeakCount>
      <stageThreshold>-8.4160465002059937e-01</stageThreshold>
      <weakClassifiers>
        <_>
          <internalNodes>
            0 -1 28 -7.7249074820429087e-04</internalNodes>
          <leafValues>
            -1.9218240678310394e-01 3.5498839616775513e-01</leafValues></_>
        <_>
          <internalNodes>
            0 -1 271 -5.3162300027906895e-03</internalNodes>
          <leafValues>
            2.7288216352462769e-01 -1.5780703723430634e-01</leafValues></_>
        <_>
          <internalNodes>
            0 -1 198 2.9956514015793800e-02</internalNodes>
          <leafValues>
            -8.9776441454887390e-02 5.4812306165695190e-01</leafValues></_>
        <_>
          <internalNodes>
            0 -1 571 -6.3662184402346611e-03</internalNodes>
          <leafValues>
            2.9914394021034241e-01 -1.3562434911727905e-01</leafValues></_>
        <_>
          <internalNodes>
            0 -1 277 1.6501342877745628e-02</internalNodes>
          <leafValues>
            -5.9826459735631943e-02 9.6800708770751953e-01</leafValues></_>
        <_>
          <internalNodes>
            0 -1 462 -2.9074648409732617e-05</internalNodes>
          <leafValues>
            -3.4252229332923889e-01 1.3211366534233093e-01</leafValues></_>
        <_>
          <internalNodes>
            0 -1 199 1.7539178952574730e-02</internalNodes>
          <leafValues>
            -1.0972748696804047e-01 3.4823527932167053e-01</leafValues></_>
        <_>
          <internalNodes>
            0 -1 485 -5.8299838565289974e-03</internalNodes>
          <leafValues>
            -6.5089100599288940e-01 5.1112107932567596e-02</leafValues></_>
        <_>
          <internalNodes>
            0 -1 371 1.8284132238477468e-04</internalNodes>
          <leafValues>
            -1.5770755708217621e-01 2.9087898135185242e-01</leafValues></_>
        <_>
          <internalNodes>
            0 -1 517 1.5893729403614998e-02</internalNodes>
          <leafValues>
            -1.5164452791213989e-01 3.2965150475502014e-01</leafValues></_>
        <_>
          <internalNodes>
            0 -1 548 -1.0486923158168793e-02</internalNodes>
          <leafValues>
            4.8957467079162598e-01 -1.2697064876556396e-01</leafValues></_>
        <_>
          <internalNodes>
            0 -1 445 -1.5047565102577209e-03</internalNodes>
          <leafValues>
            2.7386128902435303e-01 -1.5547528862953186e-01</leafValues></_>
        <_>
          <internalNodes>
            0 -1 387 2.1277274936437607e-04</internalNodes>
          <leafValues>
            -9.9543429911136627e-02 4.9186769127845764e-01</leafValues></_>
        <_>
          <internalNodes>
            0 -1 298 2.3216398432850838e-02</internalNodes>
          <leafValues>
            -4.8481419682502747e-02 7.5460404157638550e-01</leafValues></_>
        <_>
          <internalNodes>
            0 -1 359 -5.2516581490635872e-04</internalNodes>
          <leafValues>
            7.4564433097839355e-01 -4.7118611633777618e-02</leafValues></_>
        <_>
          <internalNodes>
            0 -1 43 -9.8571432754397392e-03</internalNodes>
          <leafValues>
            3.7669101357460022e-01 -1.1344779282808304e-01</leafValues></_>
        <_>
          <internalNodes>
            0 -1 389 -6.1788863968104124e-04</internalNodes>
          <leafValues>
            2.8528755903244019e-01 -1.7666405439376831e-01</leafValues></_>
        <_>
          <internalNodes>
            0 -1 133 5.7404577091801912e-05</internalNodes>
          <leafValues>
            1.5359295904636383e-01 -3.1529191136360168e-01</leafValues></_>
        <_>
          <internalNodes>
            0 -1 114 -4.7203665599226952e-04</internalNodes>
          <leafValues>
            6.7434000968933105e-01 -6.4389638602733612e-02</leafValues></_>
        <_>
          <internalNodes>
            0 -1 146 -9.0146693401038647e-04</internalNodes>
          <leafValues>
            5.6465196609497070e-01 -6.9796033203601837e-02</leafValues></_>
        <_>
          <internalNodes>
            0 -1 606 1.5217851614579558e-04</internalNodes>
          <leafValues>
            1.8469838798046112e-01 -2.4735385179519653e-01</leafValues></_>
        <_>
          <internalNodes>
            0 -1 149 -4.8917194362729788e-05</internalNodes>
          <leafValues>
            -2.9890045523643494e-01 1.4572180807590485e-01</leafValues></_>
        <_>
          <internalNodes>
            0 -1 459 5.2065058844164014e-04</internalNodes>
          <leafValues>
            -1.2516903877258301e-01 3.7733790278434753e-01</leafValues></_>
        <_>
          <internalNodes>
            0 -1 31 6.5720011480152607e-04</internalNodes>
          <leafValues>
            1.0831375420093536e-01 -4.4423604011535645e-01</leafValues></_>
        <_>
          <internalNodes>
            0 -1 140 1.8884479999542236e-02</internalNodes>
          <leafValues>
            -6.6361770033836365e-02 7.6131993532180786e-01</leafValues></_>
        <_>
          <internalNodes>
            0 -1 515 1.5562256521661766e-05</internalNodes>
          <leafValues>
            1.8441064655780792e-01 -2.5826388597488403e-01</leafValues></_>
        <_>
          <internalNodes>
            0 -1 191 -4.5369006693363190e-04</internalNodes>
          <leafValues>
            3.4247112274169922e-01 -1.3432893157005310e-01</leafValues></_>
        <_>
          <internalNodes>
            0 -1 192 4.4264539610594511e-04</internalNodes>
          <leafValues>
            -1.4052113890647888e-01 3.6179068684577942e-01</leafValues></_>
        <_>
          <internalNodes>
            0 -1 596 -1.1478572560008615e-04</internalNodes>
          <leafValues>
            -3.6331069469451904e-01 1.2257066369056702e-01</leafValues></_>
        <_>
          <internalNodes>
            0 -1 560 -3.4584377426654100e-03</internalNodes>
          <leafValues>
            4.1544842720031738e-01 -1.0938105732202530e-01</leafValues></_>
        <_>
          <internalNodes>
            0 -1 233 -2.8507286333478987e-04</internalNodes>
          <leafValues>
            3.7741369009017944e-01 -1.1639162898063660e-01</leafValues></_>
        <_>
          <internalNodes>
            0 -1 307 -4.5480066910386086e-03</internalNodes>
          <leafValues>
            -7.4058043956756592e-01 6.2898471951484680e-02</leafValues></_>
        <_>
          <internalNodes>
            0 -1 249 2.9468696564435959e-02</internalNodes>
          <leafValues>
            9.4246722757816315e-02 -4.7472691535949707e-01</leafValues></_>
        <_>
          <internalNodes>
            0 -1 52 -3.2758559100329876e-03</internalNodes>
          <leafValues>
            -4.9976235628128052e-01 9.5817498862743378e-02</leafValues></_>
        <_>
          <internalNodes>
            0 -1 466 -1.1747766286134720e-02</internalNodes>
          <leafValues>
            3.4045860171318054e-01 -1.4071823656558990e-01</leafValues></_>
        <_>
          <internalNodes>
            0 -1 545 5.3854653378948569e-04</internalNodes>
          <leafValues>
            -1.1757784336805344e-01 3.8829621672630310e-01</leafValues></_>
        <_>
          <internalNodes>
            0 -1 471 2.8909533284604549e-03</internalNodes>
          <leafValues>
            -1.4177118241786957e-01 3.4077793359756470e-01</leafValues></_>
        <_>
          <internalNodes>
            0 -1 513 3.3690157579258084e-05</internalNodes>
          <leafValues>
            1.6502569615840912e-01 -3.1816551089286804e-01</leafValues></_></weakClassifiers></_>
    <!-- stage 13 -->
    <_>
      <maxWeakCount>37</maxWeakCount>
      <stageThreshold>-8.1441217660903931e-01</stageThreshold>
      <weakClassifiers>
        <_>
          <internalNodes>
            0 -1 207 1.4666824135929346e-03</internalNodes>
          <leafValues>
            4.9019608646631241e-02 4.5918366312980652e-01</leafValues></_>
        <_>
          <internalNodes>
            0 -1 84 7.5028289575129747e-04</internalNodes>
          <leafValues>
            1.0312850028276443e-01 -4.8166817426681519e-01</leafValues></_>
        <_>
          <internalNodes>
            0 -1 345 -1.0526178812142462e-04</internalNodes>
          <leafValues>
            1.9983406364917755e-01 -2.0151107013225555e-01</leafValues></_>
        <_>
          <internalNodes>
            0 -1 235 -5.7073426432907581e-04</internalNodes>
          <leafValues>
            7.4200135469436646e-01 -5.7617627084255219e-02</leafValues></_>
        <_>
          <internalNodes>
            0 -1 401 -5.6732982397079468e-02</internalNodes>
          <leafValues>
            4.5493116974830627e-01 -9.4782941043376923e-02</leafValues></_>
        <_>
          <internalNodes>
            0 -1 275 8.6405798792839050e-03</internalNodes>
          <leafValues>
            7.5464718043804169e-02 -6.0657584667205811e-01</leafValues></_>
        <_>
          <internalNodes>
            0 -1 174 2.2812100127339363e-02</internalNodes>
          <leafValues>
            -1.1367813497781754e-01 5.2512758970260620e-01</leafValues></_>
        <_>
          <internalNodes>
            0 -1 242 7.6736987102776766e-04</internalNodes>
          <leafValues>
            -1.2275562435388565e-01 3.1536865234375000e-01</leafValues></_>
        <_>
          <internalNodes>
            0 -1 200 8.1143258139491081e-03</internalNodes>
          <leafValues>
            -1.5905255079269409e-01 2.5335729122161865e-01</leafValues></_>
        <_>
          <internalNodes>
            0 -1 353 -1.2951089069247246e-02</internalNodes>
          <leafValues>
            3.9598152041435242e-01 -1.2895761430263519e-01</leafValues></_>
        <_>
          <internalNodes>
            0 -1 106 1.6693504294380546e-03</internalNodes>
          <leafValues>
            -1.2804092466831207e-01 3.3883729577064514e-01</leafValues></_>
        <_>
          <internalNodes>
            0 -1 209 3.3164425985887647e-05</internalNodes>
          <leafValues>
            1.7592516541481018e-01 -2.5133201479911804e-01</leafValues></_>
        <_>
          <internalNodes>
            0 -1 465 -2.8709159232676029e-03</internalNodes>
          <leafValues>
            4.8494559526443481e-01 -9.9063061177730560e-02</leafValues></_>
        <_>
          <internalNodes>
            0 -1 374 3.8131130859255791e-03</internalNodes>
          <leafValues>
            5.4076425731182098e-02 -9.0754306316375732e-01</leafValues></_>
        <_>
          <internalNodes>
            0 -1 265 -3.7761062383651733e-02</internalNodes>
          <leafValues>
            -6.4144325256347656e-01 5.8930605649948120e-02</leafValues></_>
        <_>
          <internalNodes>
            0 -1 346 4.7561476822011173e-04</internalNodes>
          <leafValues>
            -1.5384148061275482e-01 2.9158952832221985e-01</leafValues></_>
        <_>
          <internalNodes>
            0 -1 134 1.0060328058898449e-03</internalNodes>
          <leafValues>
            -8.0255150794982910e-02 5.5340862274169922e-01</leafValues></_>
        <_>
          <internalNodes>
            0 -1 405 -2.3171487264335155e-03</internalNodes>
          <leafValues>
            -5.9533166885375977e-01 8.7213627994060516e-02</leafValues></_>
        <_>
          <internalNodes>
            0 -1 413 3.0219500331440940e-05</internalNodes>
          <leafValues>
            1.4145033061504364e-01 -3.6255845427513123e-01</leafValues></_>
        <_>
          <internalNodes>
            0 -1 595 3.2322995830327272e-03</internalNodes>
          <leafValues>
            5.1460724323987961e-02 -7.8701466321945190e-01</leafValues></_>
        <_>
          <internalNodes>
            0 -1 411 3.3697354956530035e-04</internalNodes>
          <leafValues>
            -1.0251598805189133e-01 4.7523388266563416e-01</leafValues></_>
        <_>
          <internalNodes>
            0 -1 4 1.4413713943213224e-03</internalNodes>
          <leafValues>
            1.0023961216211319e-01 -5.5128496885299683e-01</leafValues></_>
        <_>
          <internalNodes>
            0 -1 48 -2.7426045387983322e-02</internalNodes>
          <leafValues>
            2.9728925228118896e-01 -1.5583570301532745e-01</leafValues></_>
        <_>
          <internalNodes>
            0 -1 152 -5.1256166771054268e-03</internalNodes>
          <leafValues>
            4.3772000074386597e-01 -1.1101841181516647e-01</leafValues></_>
        <_>
          <internalNodes>
            0 -1 131 4.0524412179365754e-04</internalNodes>
          <leafValues>
            -5.0744350999593735e-02 7.9181933403015137e-01</leafValues></_>
        <_>
          <internalNodes>
            0 -1 486 1.2868534540757537e-03</internalNodes>
          <leafValues>
            -4.6564169228076935e-02 7.5442409515380859e-01</leafValues></_>
        <_>
          <internalNodes>
            0 -1 281 -1.8596601876197383e-05</internalNodes>
          <leafValues>
            -2.2044441103935242e-01 1.9990722835063934e-01</leafValues></_>
        <_>
          <internalNodes>
            0 -1 578 -6.0175010003149509e-04</internalNodes>
          <leafValues>
            8.1078696250915527e-01 -6.1305996030569077e-02</leafValues></_>
        <_>
          <internalNodes>
            0 -1 425 1.0744636529125273e-04</internalNodes>
          <leafValues>
            -1.0907696932554245e-01 3.6888879537582397e-01</leafValues></_>
        <_>
          <internalNodes>
            0 -1 573 -3.0797010287642479e-02</internalNodes>
          <leafValues>
            4.1925042867660522e-01 -1.0798073559999466e-01</leafValues></_>
        <_>
          <internalNodes>
            0 -1 540 -7.8209619969129562e-03</internalNodes>
          <leafValues>
            5.4257005453109741e-01 -8.6832024157047272e-02</leafValues></_>
        <_>
          <internalNodes>
            0 -1 381 -2.0229786969139241e-05</internalNodes>
          <leafValues>
            -2.9103937745094299e-01 1.6529548168182373e-01</leafValues></_>
        <_>
          <internalNodes>
            0 -1 453 1.1843606829643250e-02</internalNodes>
          <leafValues>
            -1.6018845140933990e-01 2.9661643505096436e-01</leafValues></_>
        <_>
          <internalNodes>
            0 -1 97 2.0470726303756237e-03</internalNodes>
          <leafValues>
            1.2256629765033722e-01 -4.1206637024879456e-01</leafValues></_>
        <_>
          <internalNodes>
            0 -1 156 5.8643112424761057e-04</internalNodes>
          <leafValues>
            -1.6099676489830017e-01 3.0807927250862122e-01</leafValues></_>
        <_>
          <internalNodes>
            0 -1 147 -7.2728209197521210e-03</internalNodes>
          <leafValues>
            -6.3246840238571167e-01 7.8423470258712769e-02</leafValues></_>
        <_>
          <internalNodes>
            0 -1 193 6.1881676083430648e-04</internalNodes>
          <leafValues>
            -1.4383885264396667e-01 3.3442023396492004e-01</leafValues></_></weakClassifiers></_>
    <!-- stage 14 -->
    <_>
      <maxWeakCount>46</maxWeakCount>
      <stageThreshold>-8.9079171419143677e-01</stageThreshold>
      <weakClassifiers>
        <_>
          <internalNodes>
            0 -1 24 -2.0484318956732750e-03</internalNodes>
          <leafValues>
            -2.8000000119209290e-01 3.2571429014205933e-01</leafValues></_>
        <_>
          <internalNodes>
            0 -1 301 -1.7738451715558767e-03</internalNodes>
          <leafValues>
            2.9533338546752930e-01 -1.4728364348411560e-01</leafValues></_>
        <_>
          <internalNodes>
            0 -1 505 1.5332652255892754e-02</internalNodes>
          <leafValues>
            -1.6065546870231628e-01 2.4802629649639130e-01</leafValues></_>
        <_>
          <internalNodes>
            0 -1 103 -6.7660945933312178e-04</internalNodes>
          <leafValues>
            4.4217514991760254e-01 -8.4293015301227570e-02</leafValues></_>
        <_>
          <internalNodes>
            0 -1 51 -3.1015910208225250e-02</internalNodes>
          <leafValues>
            3.0935779213905334e-01 -1.4516161382198334e-01</leafValues></_>
        <_>
          <internalNodes>
            0 -1 502 2.1141846664249897e-03</internalNodes>
          <leafValues>
            -1.1199850589036942e-01 3.4838148951530457e-01</leafValues></_>
        <_>
          <internalNodes>
            0 -1 220 3.9273314177989960e-02</internalNodes>
          <leafValues>
            -7.3046021163463593e-02 8.3604460954666138e-01</leafValues></_>
        <_>
          <internalNodes>
            0 -1 554 5.3519727662205696e-03</internalNodes>
          <leafValues>
            -6.8316236138343811e-02 4.3592324852943420e-01</leafValues></_>
        <_>
          <internalNodes>
            0 -1 253 3.3340074121952057e-02</internalNodes>
          <leafValues>
            -1.0310508310794830e-01 3.9440476894378662e-01</leafValues></_>
        <_>
          <internalNodes>
            0 -1 421 5.7611276861280203e-04</internalNodes>
          <leafValues>
            -1.7920990288257599e-01 2.3885978758335114e-01</leafValues></_>
        <_>
          <internalNodes>
            0 -1 385 -4.1611138731241226e-03</internalNodes>
          <leafValues>
            -4.7635775804519653e-01 1.0069689899682999e-01</leafValues></_>
        <_>
          <internalNodes>
            0 -1 27 3.8951490074396133e-02</internalNodes>
          <leafValues>
            5.5169090628623962e-02 -8.3215594291687012e-01</leafValues></_>
        <_>
          <internalNodes>
            0 -1 225 -1.1623373720794916e-03</internalNodes>
          <leafValues>
            6.4278173446655273e-01 -6.6910952329635620e-02</leafValues></_>
        <_>
          <internalNodes>
            0 -1 608 -1.3927571126259863e-04</internalNodes>
          <leafValues>
            -3.4371626377105713e-01 1.2683056294918060e-01</leafValues></_>
        <_>
          <internalNodes>
            0 -1 576 5.1145034376531839e-04</internalNodes>
          <leafValues>
            -1.2979000806808472e-01 3.3570772409439087e-01</leafValues></_>
        <_>
          <internalNodes>
            0 -1 489 1.0673895478248596e-02</internalNodes>
          <leafValues>
            8.0176152288913727e-02 -6.4684659242630005e-01</leafValues></_>
        <_>
          <internalNodes>
            0 -1 378 4.1124102426692843e-04</internalNodes>
          <leafValues>
            -1.4273075759410858e-01 2.8652709722518921e-01</leafValues></_>
        <_>
          <internalNodes>
            0 -1 431 2.0908388250973076e-05</internalNodes>
          <leafValues>
            1.6507828235626221e-01 -2.3585979640483856e-01</leafValues></_>
        <_>
          <internalNodes>
            0 -1 542 -6.4504034817218781e-03</internalNodes>
          <leafValues>
            -4.9216073751449585e-01 8.2007959485054016e-02</leafValues></_>
        <_>
          <internalNodes>
            0 -1 463 1.6202162951231003e-02</internalNodes>
          <leafValues>
            -5.8067210018634796e-02 7.3962312936782837e-01</leafValues></_>
        <_>
          <internalNodes>
            0 -1 324 9.4784121029078960e-04</internalNodes>
          <leafValues>
            -1.0470987856388092e-01 3.6122408509254456e-01</leafValues></_>
        <_>
          <internalNodes>
            0 -1 536 1.8222752260044217e-04</internalNodes>
          <leafValues>
            1.2750291824340820e-01 -3.3230215311050415e-01</leafValues></_>
        <_>
          <internalNodes>
            0 -1 130 -6.1130616813898087e-04</internalNodes>
          <leafValues>
            3.3898326754570007e-01 -1.1835682392120361e-01</leafValues></_>
        <_>
          <internalNodes>
            0 -1 179 5.3749834187328815e-03</internalNodes>
          <leafValues>
            -1.0306531190872192e-01 4.2696040868759155e-01</leafValues></_>
        <_>
          <internalNodes>
            0 -1 400 -7.6750020525651053e-06</internalNodes>
          <leafValues>
            -2.6475974917411804e-01 1.5925033390522003e-01</leafValues></_>
        <_>
          <internalNodes>
            0 -1 98 -2.1441141143441200e-04</internalNodes>
          <leafValues>
            -3.3137631416320801e-01 1.2596693634986877e-01</leafValues></_>
        <_>
          <internalNodes>
            0 -1 115 6.1609514523297548e-04</internalNodes>
          <leafValues>
            -8.7230287492275238e-02 4.7666126489639282e-01</leafValues></_>
        <_>
          <internalNodes>
            0 -1 508 -1.2578242458403111e-03</internalNodes>
          <leafValues>
            3.1873604655265808e-01 -1.2780810892581940e-01</leafValues></_>
        <_>
          <internalNodes>
            0 -1 185 -1.2037228792905807e-02</internalNodes>
          <leafValues>
            -7.0694321393966675e-01 6.4020387828350067e-02</leafValues></_>
        <_>
          <internalNodes>
            0 -1 246 -2.5766040198504925e-04</internalNodes>
          <leafValues>
            2.7915593981742859e-01 -1.4780764281749725e-01</leafValues></_>
        <_>
          <internalNodes>
            0 -1 262 -2.5330518838018179e-04</internalNodes>
          <leafValues>
            3.1469222903251648e-01 -1.4709998667240143e-01</leafValues></_>
        <_>
          <internalNodes>
            0 -1 458 -1.3637606753036380e-03</internalNodes>
          <leafValues>
            2.1882238984107971e-01 -2.0605590939521790e-01</leafValues></_>
        <_>
          <internalNodes>
            0 -1 56 -8.6792733054608107e-04</internalNodes>
          <leafValues>
            -7.0870190858840942e-01 7.0084169507026672e-02</leafValues></_>
        <_>
          <internalNodes>
            0 -1 386 -3.0018074903637171e-04</internalNodes>
          <leafValues>
            5.3306502103805542e-01 -9.2174790799617767e-02</leafValues></_>
        <_>
          <internalNodes>
            0 -1 22 -2.6348565006628633e-04</internalNodes>
          <leafValues>
            2.8926196694374084e-01 -1.4753912389278412e-01</leafValues></_>
        <_>
          <internalNodes>
            0 -1 433 -3.6663095670519397e-05</internalNodes>
          <leafValues>
            -3.1457325816154480e-01 1.3100130856037140e-01</leafValues></_>
        <_>
          <internalNodes>
            0 -1 297 1.8165618181228638e-02</internalNodes>
          <leafValues>
            6.0649622231721878e-02 -6.8573248386383057e-01</leafValues></_>
        <_>
          <internalNodes>
            0 -1 612 7.6914788223803043e-04</internalNodes>
          <leafValues>
            9.8778143525123596e-02 -4.4783875346183777e-01</leafValues></_>
        <_>
          <internalNodes>
            0 -1 157 -6.0416583437472582e-04</internalNodes>
          <leafValues>
            3.0111253261566162e-01 -1.3741509616374969e-01</leafValues></_>
        <_>
          <internalNodes>
            0 -1 619 -5.1257084123790264e-04</internalNodes>
          <leafValues>
            -4.8986068367958069e-01 8.4772512316703796e-02</leafValues></_>
        <_>
          <internalNodes>
            0 -1 437 2.8225936694070697e-04</internalNodes>
          <leafValues>
            -1.4080259203910828e-01 3.2611155509948730e-01</leafValues></_>
        <_>
          <internalNodes>
            0 -1 584 2.4895829847082496e-04</internalNodes>
          <leafValues>
            -1.7857819795608521e-01 2.4890227615833282e-01</leafValues></_>
        <_>
          <internalNodes>
            0 -1 535 6.2031678680796176e-05</internalNodes>
          <leafValues>
            1.5053319931030273e-01 -2.9571118950843811e-01</leafValues></_>
        <_>
          <internalNodes>
            0 -1 35 -8.2260919734835625e-03</internalNodes>
          <leafValues>
            -8.2820606231689453e-01 5.0278775393962860e-02</leafValues></_>
        <_>
          <internalNodes>
            0 -1 597 6.7816040245816112e-04</internalNodes>
          <leafValues>
            -1.1176184564828873e-01 4.2111498117446899e-01</leafValues></_>
        <_>
          <internalNodes>
            0 -1 224 -2.8397547430358827e-04</internalNodes>
          <leafValues>
            4.3862679600715637e-01 -9.5408171415328979e-02</leafValues></_></weakClassifiers></_>
    <!-- stage 15 -->
    <_>
      <maxWeakCount>38</maxWeakCount>
      <stageThreshold>-8.0313259363174438e-01</stageThreshold>
      <weakClassifiers>
        <_>
          <internalNodes>
            0 -1 391 4.8741546925157309e-04</internalNodes>
          <leafValues>
            5.6372549384832382e-02 4.5153060555458069e-01</leafValues></_>
        <_>
          <internalNodes>
            0 -1 473 -1.4073044992983341e-02</internalNodes>
          <leafValues>
            4.3715617060661316e-01 -9.9263846874237061e-02</leafValues></_>
        <_>
          <internalNodes>
            0 -1 430 -6.6677713766694069e-03</internalNodes>
          <leafValues>
            2.7532097697257996e-01 -2.0267106592655182e-01</leafValues></_>
        <_>
          <internalNodes>
            0 -1 470 2.8670879546552896e-03</internalNodes>
          <leafValues>
            -9.0097635984420776e-02 4.7919306159019470e-01</leafValues></_>
        <_>
          <internalNodes>
            0 -1 77 4.3029716471210122e-04</internalNodes>
          <leafValues>
            5.9563599526882172e-02 -5.0973868370056152e-01</leafValues></_>
        <_>
          <internalNodes>
            0 -1 287 -4.7168387100100517e-03</internalNodes>
          <leafValues>
            -5.0235146284103394e-01 1.0492113977670670e-01</leafValues></_>
        <_>
          <internalNodes>
            0 -1 321 -2.3570450139231980e-05</internalNodes>
          <leafValues>
            -2.6561361551284790e-01 1.3558226823806763e-01</leafValues></_>
        <_>
          <internalNodes>
            0 -1 370 -5.9993937611579895e-04</internalNodes>
          <leafValues>
            2.8954267501831055e-01 -1.2967146933078766e-01</leafValues></_>
        <_>
          <internalNodes>
            0 -1 132 -3.9320264011621475e-02</internalNodes>
          <leafValues>
            4.8236390948295593e-01 -9.3198247253894806e-02</leafValues></_>
        <_>
          <internalNodes>
            0 -1 90 4.7441180795431137e-03</internalNodes>
          <leafValues>
            -8.8952988386154175e-02 5.1120477914810181e-01</leafValues></_>
        <_>
          <internalNodes>
            0 -1 75 -7.7553813753183931e-05</internalNodes>
          <leafValues>
            -2.5453156232833862e-01 1.6884808242321014e-01</leafValues></_>
        <_>
          <internalNodes>
            0 -1 403 4.4251140207052231e-04</internalNodes>
          <leafValues>
            -4.0400352329015732e-02 8.2963603734970093e-01</leafValues></_>
        <_>
          <internalNodes>
            0 -1 355 -8.2082010339945555e-04</internalNodes>
          <leafValues>
            5.0618416070938110e-01 -7.9414062201976776e-02</leafValues></_>
        <_>
          <internalNodes>
            0 -1 327 -1.5775918960571289e-02</internalNodes>
          <leafValues>
            -5.8601188659667969e-01 7.3532022535800934e-02</leafValues></_>
        <_>
          <internalNodes>
            0 -1 373 -5.3366960491985083e-04</internalNodes>
          <leafValues>
            3.4154012799263000e-01 -1.2068992853164673e-01</leafValues></_>
        <_>
          <internalNodes>
            0 -1 375 8.0394675023853779e-04</internalNodes>
          <leafValues>
            -1.1218035221099854e-01 3.9575523138046265e-01</leafValues></_>
        <_>
          <internalNodes>
            0 -1 50 -9.9124867119826376e-05</internalNodes>
          <leafValues>
            -4.0180107951164246e-01 1.2903745472431183e-01</leafValues></_>
        <_>
          <internalNodes>
            0 -1 544 1.4787513762712479e-02</internalNodes>
          <leafValues>
            -1.1296713352203369e-01 3.8568773865699768e-01</leafValues></_>
        <_>
          <internalNodes>
            0 -1 202 -5.3756986744701862e-04</internalNodes>
          <leafValues>
            3.1757780909538269e-01 -1.2428159266710281e-01</leafValues></_>
        <_>
          <internalNodes>
            0 -1 384 2.1460728021338582e-05</internalNodes>
          <leafValues>
            1.6376413404941559e-01 -2.5521054863929749e-01</leafValues></_>
        <_>
          <internalNodes>
            0 -1 477 1.7842974921222776e-04</internalNodes>
          <leafValues>
            -1.4965271949768066e-01 2.8052556514739990e-01</leafValues></_>
        <_>
          <internalNodes>
            0 -1 155 -1.1779411579482257e-05</internalNodes>
          <leafValues>
            -2.4033728241920471e-01 1.8876084685325623e-01</leafValues></_>
        <_>
          <internalNodes>
            0 -1 96 5.4330993443727493e-03</internalNodes>
          <leafValues>
            -1.2743583321571350e-01 3.4792694449424744e-01</leafValues></_>
        <_>
          <internalNodes>
            0 -1 303 -5.2543939091265202e-04</internalNodes>
          <leafValues>
            3.3178308606147766e-01 -1.3446968793869019e-01</leafValues></_>
        <_>
          <internalNodes>
            0 -1 18 -9.6771940588951111e-03</internalNodes>
          <leafValues>
            -6.9961619377136230e-01 7.2580374777317047e-02</leafValues></_>
        <_>
          <internalNodes>
            0 -1 562 -2.8493748686742038e-05</internalNodes>
          <leafValues>
            -2.5440707802772522e-01 1.7260012030601501e-01</leafValues></_>
        <_>
          <internalNodes>
